<?xml version="1.0"?>
<opencv_storage>
<cascade>
  <stageType>BOOST</stageType>
  <featureType>HAAR</featureType>
  <height>20</height>
  <width>20</width>
  <stageParams>
    <boostType>GAB</boostType>
    <minHitRate>9.9500000476837158e-01</minHitRate>
    <maxFalseAlarm>5.0000000000000000e-01</maxFalseAlarm>
    <weightTrimRate>9.4999999999999996e-01</weightTrimRate>
    <maxDepth>1</maxDepth>
    <maxWeakCount>100</maxWeakCount></stageParams>
  <featureParams>
    <maxCatCount>0</maxCatCount>
    <featSize>1</featSize>
    <mode>BASIC</mode></featureParams>
  <stageNum>18</stageNum>
  <stages>
    <!-- stage 0 -->
    <_>
      <maxWeakCount>3</maxWeakCount>
      <stageThreshold>-1.2184640169143677e+00</stageThreshold>
      <weakClassifiers>
        <_>
          <internalNodes>
            0 -1 18 9.0919025242328644e-02</internalNodes>
          <leafValues>
            -8.5727971792221069e-01 7.0388346910476685e-01</leafValues></_>
        <_>
          <internalNodes>
            0 -1 20 5.2376810461282730e-02</internalNodes>
          <leafValues>
            -7.8968012332916260e-01 5.6083023548126221e-01</leafValues></_>
        <_>
          <internalNodes>
            0 -1 39 2.2621603310108185e-01</internalNodes>
          <leafValues>
            -9.2201453447341919e-01 4.5507368445396423e-01</leafValues></_></weakClassifiers></_>
    <!-- stage 1 -->
    <_>
      <maxWeakCount>4</maxWeakCount>
      <stageThreshold>-1.9905855655670166e+00</stageThreshold>
      <weakClassifiers>
        <_>
          <internalNodes>
            0 -1 142 -4.5789286494255066e-02</internalNodes>
          <leafValues>
            6.6756033897399902e-01 -8.2228493690490723e-01</leafValues></_>
        <_>
          <internalNodes>
            0 -1 23 -1.5676785260438919e-02</internalNodes>
          <leafValues>
            5.2481871843338013e-01 -6.6997838020324707e-01</leafValues></_>
        <_>
          <internalNodes>
            0 -1 48 7.0464491844177246e-02</internalNodes>
          <leafValues>
            -9.4106715917587280e-01 3.8521301746368408e-01</leafValues></_>
        <_>
          <internalNodes>
            0 -1 44 -2.1677482873201370e-02</internalNodes>
          <leafValues>
            3.5234263539314270e-01 -8.8353538513183594e-01</leafValues></_></weakClassifiers></_>
    <!-- stage 2 -->
    <_>
      <maxWeakCount>5</maxWeakCount>
      <stageThreshold>-1.8115746974945068e+00</stageThreshold>
      <weakClassifiers>
        <_>
          <internalNodes>
            0 -1 30 3.2036289572715759e-02</internalNodes>
          <leafValues>
            -8.5942173004150391e-01 4.5344129204750061e-01</leafValues></_>
        <_>
          <internalNodes>
            0 -1 109 -1.0426145046949387e-02</internalNodes>
          <leafValues>
            3.2792952656745911e-01 -7.8878659009933472e-01</leafValues></_>
        <_>
          <internalNodes>
            0 -1 37 1.3428326696157455e-02</internalNodes>
          <leafValues>
            -8.2448947429656982e-01 3.1800073385238647e-01</leafValues></_>
        <_>
          <internalNodes>
            0 -1 33 -8.9719668030738831e-02</internalNodes>
          <leafValues>
            3.8174837827682495e-01 -8.1094491481781006e-01</leafValues></_>
        <_>
          <internalNodes>
            0 -1 121 -8.1206727772951126e-03</internalNodes>
          <leafValues>
            3.5535189509391785e-01 -7.9885405302047729e-01</leafValues></_></weakClassifiers></_>
    <!-- stage 3 -->
    <_>
      <maxWeakCount>6</maxWeakCount>
      <stageThreshold>-1.5584079027175903e+00</stageThreshold>
      <weakClassifiers>
        <_>
          <internalNodes>
            0 -1 22 6.0773238539695740e-02</internalNodes>
          <leafValues>
            -7.8027915954589844e-01 8.3512544631958008e-01</leafValues></_>
        <_>
          <internalNodes>
            0 -1 139 4.2432114481925964e-02</internalNodes>
          <leafValues>
            -4.6902036666870117e-01 7.4697023630142212e-01</leafValues></_>
        <_>
          <internalNodes>
            0 -1 5 4.3760195374488831e-02</internalNodes>
          <leafValues>
            -5.3314822912216187e-01 5.7643550634384155e-01</leafValues></_>
        <_>
          <internalNodes>
            0 -1 3 3.4552967548370361e-01</internalNodes>
          <leafValues>
            -6.7115789651870728e-01 4.5342558622360229e-01</leafValues></_>
        <_>
          <internalNodes>
            0 -1 1 5.9014804661273956e-02</internalNodes>
          <leafValues>
            -6.8969041109085083e-01 3.5931041836738586e-01</leafValues></_>
        <_>
          <internalNodes>
            0 -1 29 -1.4799146912992001e-02</internalNodes>
          <leafValues>
            5.3588730096817017e-01 -3.6514091491699219e-01</leafValues></_></weakClassifiers></_>
    <!-- stage 4 -->
    <_>
      <maxWeakCount>7</maxWeakCount>
      <stageThreshold>-1.7934669256210327e+00</stageThreshold>
      <weakClassifiers>
        <_>
          <internalNodes>
            0 -1 153 5.8181468397378922e-02</internalNodes>
          <leafValues>
            -7.7910172939300537e-01 6.2893080711364746e-01</leafValues></_>
        <_>
          <internalNodes>
            0 -1 18 1.1606413125991821e-01</internalNodes>
          <leafValues>
            -4.7754818201065063e-01 6.2222242355346680e-01</leafValues></_>
        <_>
          <internalNodes>
            0 -1 144 -1.1836495250463486e-02</internalNodes>
          <leafValues>
            4.2055097222328186e-01 -5.8558207750320435e-01</leafValues></_>
        <_>
          <internalNodes>
            0 -1 84 1.0560327209532261e-02</internalNodes>
          <leafValues>
            -9.1554480791091919e-01 2.0361329615116119e-01</leafValues></_>
        <_>
          <internalNodes>
            0 -1 16 9.9950004369020462e-03</internalNodes>
          <leafValues>
            -6.2649828195571899e-01 3.0699849128723145e-01</leafValues></_>
        <_>
          <internalNodes>
            0 -1 99 1.7588282003998756e-02</internalNodes>
          <leafValues>
            2.1364335715770721e-01 -8.6642640829086304e-01</leafValues></_>
        <_>
          <internalNodes>
            0 -1 115 -8.7440554052591324e-03</internalNodes>
          <leafValues>
            2.5800669193267822e-01 -6.3410860300064087e-01</leafValues></_></weakClassifiers></_>
    <!-- stage 5 -->
    <_>
      <maxWeakCount>6</maxWeakCount>
      <stageThreshold>-1.9184962511062622e+00</stageThreshold>
      <weakClassifiers>
        <_>
          <internalNodes>
            0 -1 146 1.9304406642913818e-01</internalNodes>
          <leafValues>
            -7.9329872131347656e-01 4.7506561875343323e-01</leafValues></_>
        <_>
          <internalNodes>
            0 -1 34 -1.0738514363765717e-01</internalNodes>
          <leafValues>
            1.5637895464897156e-01 -7.9156231880187988e-01</leafValues></_>
        <_>
          <internalNodes>
            0 -1 19 -4.7052003443241119e-02</internalNodes>
          <leafValues>
            5.4086339473724365e-01 -4.4620344042778015e-01</leafValues></_>
        <_>
          <internalNodes>
            0 -1 92 -3.9653964340686798e-03</internalNodes>
          <leafValues>
            2.4929375946521759e-01 -8.2052534818649292e-01</leafValues></_>
        <_>
          <internalNodes>
            0 -1 122 1.5351220034062862e-02</internalNodes>
          <leafValues>
            -8.2507616281509399e-01 2.0654164254665375e-01</leafValues></_>
        <_>
          <internalNodes>
            0 -1 46 8.9103616774082184e-03</internalNodes>
          <leafValues>
            -5.8001369237899780e-01 3.0247661471366882e-01</leafValues></_></weakClassifiers></_>
    <!-- stage 6 -->
    <_>
      <maxWeakCount>8</maxWeakCount>
      <stageThreshold>-1.7833845615386963e+00</stageThreshold>
      <weakClassifiers>
        <_>
          <internalNodes>
            0 -1 151 9.2437669634819031e-02</internalNodes>
          <leafValues>
            -7.3940205574035645e-01 6.0617762804031372e-01</leafValues></_>
        <_>
          <internalNodes>
            0 -1 32 1.9719643518328667e-02</internalNodes>
          <leafValues>
            -5.3180378675460815e-01 4.0494918823242188e-01</leafValues></_>
        <_>
          <internalNodes>
            0 -1 62 9.4171501696109772e-03</internalNodes>
          <leafValues>
            -9.2868882417678833e-01 1.9936735928058624e-01</leafValues></_>
        <_>
          <internalNodes>
            0 -1 45 -4.3738432228565216e-02</internalNodes>
          <leafValues>
            2.8718644380569458e-01 -6.9387137889862061e-01</leafValues></_>
        <_>
          <internalNodes>
            0 -1 128 -1.2098495848476887e-02</internalNodes>
          <leafValues>
            3.2895132899284363e-01 -5.5373567342758179e-01</leafValues></_>
        <_>
          <internalNodes>
            0 -1 66 1.5583578497171402e-02</internalNodes>
          <leafValues>
            1.9390466809272766e-01 -8.6239820718765259e-01</leafValues></_>
        <_>
          <internalNodes>
            0 -1 38 6.7453519441187382e-03</internalNodes>
          <leafValues>
            -7.5231391191482544e-01 2.1850402653217316e-01</leafValues></_>
        <_>
          <internalNodes>
            0 -1 42 3.7202268838882446e-02</internalNodes>
          <leafValues>
            -6.8160539865493774e-01 2.1178317070007324e-01</leafValues></_></weakClassifiers></_>
    <!-- stage 7 -->
    <_>
      <maxWeakCount>8</maxWeakCount>
      <stageThreshold>-1.3885145187377930e+00</stageThreshold>
      <weakClassifiers>
        <_>
          <internalNodes>
            0 -1 140 4.1715286672115326e-02</internalNodes>
          <leafValues>
            -7.9951804876327515e-01 3.7411764264106750e-01</leafValues></_>
        <_>
          <internalNodes>
            0 -1 8 1.5805048868060112e-02</internalNodes>
          <leafValues>
            -4.4647353887557983e-01 7.2039085626602173e-01</leafValues></_>
        <_>
          <internalNodes>
            0 -1 108 -1.1886345222592354e-02</internalNodes>
          <leafValues>
            2.5190773606300354e-01 -6.6681271791458130e-01</leafValues></_>
        <_>
          <internalNodes>
            0 -1 113 -4.3893672525882721e-02</internalNodes>
          <leafValues>
            -8.2940143346786499e-01 1.6866545379161835e-01</leafValues></_>
        <_>
          <internalNodes>
            0 -1 66 -1.4268176630139351e-02</internalNodes>
          <leafValues>
            -7.8516095876693726e-01 2.1105434000492096e-01</leafValues></_>
        <_>
          <internalNodes>
            0 -1 0 2.8203448746353388e-03</internalNodes>
          <leafValues>
            -5.3433161973953247e-01 3.0620521306991577e-01</leafValues></_>
        <_>
          <internalNodes>
            0 -1 43 -8.5373334586620331e-03</internalNodes>
          <leafValues>
            1.8397104740142822e-01 -8.4055036306381226e-01</leafValues></_>
        <_>
          <internalNodes>
            0 -1 10 -2.0207285881042480e-02</internalNodes>
          <leafValues>
            7.3648554086685181e-01 -2.6625981926918030e-01</leafValues></_></weakClassifiers></_>
    <!-- stage 8 -->
    <_>
      <maxWeakCount>9</maxWeakCount>
      <stageThreshold>-1.6159796714782715e+00</stageThreshold>
      <weakClassifiers>
        <_>
          <internalNodes>
            0 -1 17 8.0334961414337158e-02</internalNodes>
          <leafValues>
            -7.6454162597656250e-01 4.0740740299224854e-01</leafValues></_>
        <_>
          <internalNodes>
            0 -1 147 1.8190836533904076e-02</internalNodes>
          <leafValues>
            -4.1840776801109314e-01 6.8471705913543701e-01</leafValues></_>
        <_>
          <internalNodes>
            0 -1 58 -1.2827510014176369e-02</internalNodes>
          <leafValues>
            -7.8487938642501831e-01 1.9686940312385559e-01</leafValues></_>
        <_>
          <internalNodes>
            0 -1 145 9.9549507722258568e-03</internalNodes>
          <leafValues>
            -2.2192904353141785e-01 7.2720581293106079e-01</leafValues></_>
        <_>
          <internalNodes>
            0 -1 76 1.8320553004741669e-02</internalNodes>
          <leafValues>
            2.5231161713600159e-01 -8.2940351963043213e-01</leafValues></_>
        <_>
          <internalNodes>
            0 -1 137 -1.8147382885217667e-02</internalNodes>
          <leafValues>
            2.1248506009578705e-01 -6.3326436281204224e-01</leafValues></_>
        <_>
          <internalNodes>
            0 -1 9 6.8254157900810242e-02</internalNodes>
          <leafValues>
            -2.0557692646980286e-01 7.5222492218017578e-01</leafValues></_>
        <_>
          <internalNodes>
            0 -1 35 -1.4191673137247562e-02</internalNodes>
          <leafValues>
            2.0138239860534668e-01 -7.5867444276809692e-01</leafValues></_>
        <_>
          <internalNodes>
            0 -1 36 -5.9328950010240078e-04</internalNodes>
          <leafValues>
            -6.2350070476531982e-01 2.1314229071140289e-01</leafValues></_></weakClassifiers></_>
    <!-- stage 9 -->
    <_>
      <maxWeakCount>9</maxWeakCount>
      <stageThreshold>-1.9584687948226929e+00</stageThreshold>
      <weakClassifiers>
        <_>
          <internalNodes>
            0 -1 24 4.2125470936298370e-02</internalNodes>
          <leafValues>
            -7.7427071332931519e-01 2.9095354676246643e-01</leafValues></_>
        <_>
          <internalNodes>
            0 -1 119 4.9807475879788399e-03</internalNodes>
          <leafValues>
            -5.0371706485748291e-01 4.3632531166076660e-01</leafValues></_>
        <_>
          <internalNodes>
            0 -1 117 -1.4723658561706543e-02</internalNodes>
          <leafValues>
            1.6842089593410492e-01 -8.2759869098663330e-01</leafValues></_>
        <_>
          <internalNodes>
            0 -1 130 -1.4163090847432613e-02</internalNodes>
          <leafValues>
            3.1594425439834595e-01 -5.0633692741394043e-01</leafValues></_>
        <_>
          <internalNodes>
            0 -1 28 1.2039260938763618e-02</internalNodes>
          <leafValues>
            -2.2235120832920074e-01 7.3261767625808716e-01</leafValues></_>
        <_>
          <internalNodes>
            0 -1 40 6.7783528938889503e-03</internalNodes>
          <leafValues>
            -7.8351563215255737e-01 2.0054021477699280e-01</leafValues></_>
        <_>
          <internalNodes>
            0 -1 155 -1.2983808992430568e-03</internalNodes>
          <leafValues>
            -8.8640773296356201e-01 9.5469266176223755e-02</leafValues></_>
        <_>
          <internalNodes>
            0 -1 132 -2.5848625227808952e-02</internalNodes>
          <leafValues>
            -9.4490450620651245e-01 1.2108165770769119e-01</leafValues></_>
        <_>
          <internalNodes>
            0 -1 2 1.6266919672489166e-02</internalNodes>
          <leafValues>
            -5.3730493783950806e-01 2.0225758850574493e-01</leafValues></_></weakClassifiers></_>
    <!-- stage 10 -->
    <_>
      <maxWeakCount>11</maxWeakCount>
      <stageThreshold>-1.7069698572158813e+00</stageThreshold>
      <weakClassifiers>
        <_>
          <internalNodes>
            0 -1 143 1.3317540287971497e-02</internalNodes>
          <leafValues>
            -8.0312973260879517e-01 1.7533718049526215e-01</leafValues></_>
        <_>
          <internalNodes>
            0 -1 31 2.3492043837904930e-02</internalNodes>
          <leafValues>
            -5.6584990024566650e-01 2.7869778871536255e-01</leafValues></_>
        <_>
          <internalNodes>
            0 -1 123 9.7567178308963776e-03</internalNodes>
          <leafValues>
            -3.7903934717178345e-01 4.0124049782752991e-01</leafValues></_>
        <_>
          <internalNodes>
            0 -1 57 5.5901594460010529e-03</internalNodes>
          <leafValues>
            -8.3159381151199341e-01 1.7213334143161774e-01</leafValues></_>
        <_>
          <internalNodes>
            0 -1 98 1.9201191142201424e-02</internalNodes>
          <leafValues>
            2.4722662568092346e-01 -6.9370490312576294e-01</leafValues></_>
        <_>
          <internalNodes>
            0 -1 75 5.8802299201488495e-02</internalNodes>
          <leafValues>
            1.4163795113563538e-01 -8.0774873495101929e-01</leafValues></_>
        <_>
          <internalNodes>
            0 -1 74 5.3482279181480408e-03</internalNodes>
          <leafValues>
            -5.1253557205200195e-01 2.4806568026542664e-01</leafValues></_>
        <_>
          <internalNodes>
            0 -1 110 4.7151762992143631e-03</internalNodes>
          <leafValues>
            -1.6899742186069489e-01 8.4368890523910522e-01</leafValues></_>
        <_>
          <internalNodes>
            0 -1 96 -6.0343286022543907e-03</internalNodes>
          <leafValues>
            7.3118329048156738e-01 -2.2853305935859680e-01</leafValues></_>
        <_>
          <internalNodes>
            0 -1 114 1.3405845966190100e-03</internalNodes>
          <leafValues>
            -2.6518866419792175e-01 4.4777479767799377e-01</leafValues></_>
        <_>
          <internalNodes>
            0 -1 64 1.9588034600019455e-02</internalNodes>
          <leafValues>
            1.7178298532962799e-01 -7.2187501192092896e-01</leafValues></_></weakClassifiers></_>
    <!-- stage 11 -->
    <_>
      <maxWeakCount>13</maxWeakCount>
      <stageThreshold>-2.1649022102355957e+00</stageThreshold>
      <weakClassifiers>
        <_>
          <internalNodes>
            0 -1 151 8.3141982555389404e-02</internalNodes>
          <leafValues>
            -7.5145632028579712e-01 1.0909090936183929e-01</leafValues></_>
        <_>
          <internalNodes>
            0 -1 103 2.0485110580921173e-03</internalNodes>
          <leafValues>
            -3.9292940497398376e-01 5.1808905601501465e-01</leafValues></_>
        <_>
          <internalNodes>
            0 -1 129 2.8245719149708748e-03</internalNodes>
          <leafValues>
            -6.2978798151016235e-01 2.3509445786476135e-01</leafValues></_>
        <_>
          <internalNodes>
            0 -1 25 3.4838687628507614e-02</internalNodes>
          <leafValues>
            -7.7546262741088867e-01 1.7245347797870636e-01</leafValues></_>
        <_>
          <internalNodes>
            0 -1 138 -8.7709762156009674e-03</internalNodes>
          <leafValues>
            6.0589635372161865e-01 -2.2066840529441833e-01</leafValues></_>
        <_>
          <internalNodes>
            0 -1 56 5.6851752102375031e-02</internalNodes>
          <leafValues>
            1.9965861737728119e-01 -8.2796329259872437e-01</leafValues></_>
        <_>
          <internalNodes>
            0 -1 88 -1.7563985602464527e-04</internalNodes>
          <leafValues>
            3.0165085196495056e-01 -3.8931363821029663e-01</leafValues></_>
        <_>
          <internalNodes>
            0 -1 55 -3.9577870629727840e-03</internalNodes>
          <leafValues>
            -6.3665795326232910e-01 1.8164838850498199e-01</leafValues></_>
        <_>
          <internalNodes>
            0 -1 102 3.5243793390691280e-03</internalNodes>
          <leafValues>
            -8.2572996616363525e-01 1.3371163606643677e-01</leafValues></_>
        <_>
          <internalNodes>
            0 -1 41 2.5778140872716904e-02</internalNodes>
          <leafValues>
            -8.2738256454467773e-01 1.1979831010103226e-01</leafValues></_>
        <_>
          <internalNodes>
            0 -1 80 -3.6310303956270218e-02</internalNodes>
          <leafValues>
            -5.9606206417083740e-01 1.9525133073329926e-01</leafValues></_>
        <_>
          <internalNodes>
            0 -1 133 -8.1564188003540039e-03</internalNodes>
          <leafValues>
            6.3411021232604980e-01 -2.0848199725151062e-01</leafValues></_>
        <_>
          <internalNodes>
            0 -1 156 8.3027221262454987e-04</internalNodes>
          <leafValues>
            1.6995108127593994e-01 -8.0623590946197510e-01</leafValues></_></weakClassifiers></_>
    <!-- stage 12 -->
    <_>
      <maxWeakCount>11</maxWeakCount>
      <stageThreshold>-1.8711285591125488e+00</stageThreshold>
      <weakClassifiers>
        <_>
          <internalNodes>
            0 -1 148 2.3034874349832535e-02</internalNodes>
          <leafValues>
            -7.4153554439544678e-01 1.3647642731666565e-01</leafValues></_>
        <_>
          <internalNodes>
            0 -1 104 4.7782389447093010e-03</internalNodes>
          <leafValues>
            -5.1730620861053467e-01 2.4317511916160583e-01</leafValues></_>
        <_>
          <internalNodes>
            0 -1 47 3.1106546521186829e-03</internalNodes>
          <leafValues>
            -6.3952106237411499e-01 1.8620535731315613e-01</leafValues></_>
        <_>
          <internalNodes>
            0 -1 59 4.2387947440147400e-02</internalNodes>
          <leafValues>
            1.5616519749164581e-01 -9.1169857978820801e-01</leafValues></_>
        <_>
          <internalNodes>
            0 -1 53 -3.9374032057821751e-03</internalNodes>
          <leafValues>
            2.5673887133598328e-01 -4.2104744911193848e-01</leafValues></_>
        <_>
          <internalNodes>
            0 -1 15 2.3857795167714357e-03</internalNodes>
          <leafValues>
            -5.4735600948333740e-01 2.2865541279315948e-01</leafValues></_>
        <_>
          <internalNodes>
            0 -1 94 -7.3682721704244614e-03</internalNodes>
          <leafValues>
            6.9213461875915527e-01 -1.9512583315372467e-01</leafValues></_>
        <_>
          <internalNodes>
            0 -1 81 -1.1015366762876511e-02</internalNodes>
          <leafValues>
            8.0441695451736450e-01 -1.3557608425617218e-01</leafValues></_>
        <_>
          <internalNodes>
            0 -1 150 2.9238394927233458e-03</internalNodes>
          <leafValues>
            1.5888836979866028e-01 -8.7678724527359009e-01</leafValues></_>
        <_>
          <internalNodes>
            0 -1 13 1.5832678973674774e-01</internalNodes>
          <leafValues>
            1.0158077627420425e-01 -8.6353284120559692e-01</leafValues></_>
        <_>
          <internalNodes>
            0 -1 131 2.2630738094449043e-03</internalNodes>
          <leafValues>
            -7.0995253324508667e-01 1.3369385898113251e-01</leafValues></_></weakClassifiers></_>
    <!-- stage 13 -->
    <_>
      <maxWeakCount>13</maxWeakCount>
      <stageThreshold>-2.0200059413909912e+00</stageThreshold>
      <weakClassifiers>
        <_>
          <internalNodes>
            0 -1 85 -1.8043991178274155e-02</internalNodes>
          <leafValues>
            4.7872340679168701e-01 -6.8771624565124512e-01</leafValues></_>
        <_>
          <internalNodes>
            0 -1 135 -3.7720814347267151e-02</internalNodes>
          <leafValues>
            3.0729952454566956e-01 -5.4908549785614014e-01</leafValues></_>
        <_>
          <internalNodes>
            0 -1 49 5.0400653854012489e-03</internalNodes>
          <leafValues>
            -5.3454053401947021e-01 2.4069878458976746e-01</leafValues></_>
        <_>
          <internalNodes>
            0 -1 12 -1.4450283348560333e-01</internalNodes>
          <leafValues>
            2.7020281553268433e-01 -4.7368210554122925e-01</leafValues></_>
        <_>
          <internalNodes>
            0 -1 120 1.8865928053855896e-02</internalNodes>
          <leafValues>
            1.4199420809745789e-01 -8.9040905237197876e-01</leafValues></_>
        <_>
          <internalNodes>
            0 -1 83 -1.1372499167919159e-02</internalNodes>
          <leafValues>
            7.3640805482864380e-01 -1.7154023051261902e-01</leafValues></_>
        <_>
          <internalNodes>
            0 -1 26 4.4242404401302338e-02</internalNodes>
          <leafValues>
            -1.7938843369483948e-01 6.5251564979553223e-01</leafValues></_>
        <_>
          <internalNodes>
            0 -1 82 -5.3474130108952522e-03</internalNodes>
          <leafValues>
            5.2524155378341675e-01 -2.2476807236671448e-01</leafValues></_>
        <_>
          <internalNodes>
            0 -1 91 -1.4197336509823799e-02</internalNodes>
          <leafValues>
            1.6654980182647705e-01 -6.8261194229125977e-01</leafValues></_>
        <_>
          <internalNodes>
            0 -1 79 -2.1609805524349213e-02</internalNodes>
          <leafValues>
            -6.9480639696121216e-01 1.6536714136600494e-01</leafValues></_>
        <_>
          <internalNodes>
            0 -1 70 -1.2814749032258987e-02</internalNodes>
          <leafValues>
            -7.3549616336822510e-01 1.2824939191341400e-01</leafValues></_>
        <_>
          <internalNodes>
            0 -1 154 -1.4943119604140520e-03</internalNodes>
          <leafValues>
            -5.7995313405990601e-01 1.7939063906669617e-01</leafValues></_>
        <_>
          <internalNodes>
            0 -1 69 -2.3200310766696930e-02</internalNodes>
          <leafValues>
            -8.0677366256713867e-01 1.0767030715942383e-01</leafValues></_></weakClassifiers></_>
    <!-- stage 14 -->
    <_>
      <maxWeakCount>11</maxWeakCount>
      <stageThreshold>-1.5818959474563599e+00</stageThreshold>
      <weakClassifiers>
        <_>
          <internalNodes>
            0 -1 7 1.6924826428294182e-02</internalNodes>
          <leafValues>
            -7.2620719671249390e-01 1.3351498544216156e-01</leafValues></_>
        <_>
          <internalNodes>
            0 -1 141 1.9253319129347801e-02</internalNodes>
          <leafValues>
            -4.9171766638755798e-01 3.3758038282394409e-01</leafValues></_>
        <_>
          <internalNodes>
            0 -1 60 -1.4022535644471645e-02</internalNodes>
          <leafValues>
            2.2908982634544373e-01 -5.6555283069610596e-01</leafValues></_>
        <_>
          <internalNodes>
            0 -1 118 -7.4505968950688839e-04</internalNodes>
          <leafValues>
            3.3269283175468445e-01 -3.4986597299575806e-01</leafValues></_>
        <_>
          <internalNodes>
            0 -1 68 -2.4281889200210571e-03</internalNodes>
          <leafValues>
            -5.8257973194122314e-01 2.4405212700366974e-01</leafValues></_>
        <_>
          <internalNodes>
            0 -1 97 9.0978415682911873e-03</internalNodes>
          <leafValues>
            -7.0361155271530151e-01 1.7005187273025513e-01</leafValues></_>
        <_>
          <internalNodes>
            0 -1 124 3.4808263182640076e-02</internalNodes>
          <leafValues>
            1.1329594999551773e-01 -8.8919234275817871e-01</leafValues></_>
        <_>
          <internalNodes>
            0 -1 126 -3.9529162459075451e-03</internalNodes>
          <leafValues>
            6.6430574655532837e-01 -1.9115482270717621e-01</leafValues></_>
        <_>
          <internalNodes>
            0 -1 149 -1.5209405682981014e-02</internalNodes>
          <leafValues>
            5.5324339866638184e-01 -1.9169801473617554e-01</leafValues></_>
        <_>
          <internalNodes>
            0 -1 107 5.8322511613368988e-03</internalNodes>
          <leafValues>
            1.5680757164955139e-01 -7.9800856113433838e-01</leafValues></_>
        <_>
          <internalNodes>
            0 -1 72 4.2590806260704994e-03</internalNodes>
          <leafValues>
            -2.8700268268585205e-01 4.0384706854820251e-01</leafValues></_></weakClassifiers></_>
    <!-- stage 15 -->
    <_>
      <maxWeakCount>13</maxWeakCount>
      <stageThreshold>-1.7815046310424805e+00</stageThreshold>
      <weakClassifiers>
        <_>
          <internalNodes>
            0 -1 17 9.0004265308380127e-02</internalNodes>
          <leafValues>
            -7.3689138889312744e-01 2.0329670608043671e-01</leafValues></_>
        <_>
          <internalNodes>
            0 -1 101 -9.4676278531551361e-03</internalNodes>
          <leafValues>
            5.3412455320358276e-01 -3.4948441386222839e-01</leafValues></_>
        <_>
          <internalNodes>
            0 -1 54 6.1952918767929077e-03</internalNodes>
          <leafValues>
            -3.5697010159492493e-01 3.2513260841369629e-01</leafValues></_>
        <_>
          <internalNodes>
            0 -1 61 2.4405135773122311e-03</internalNodes>
          <leafValues>
            -8.1092619895935059e-01 1.4153993129730225e-01</leafValues></_>
        <_>
          <internalNodes>
            0 -1 65 3.6316204816102982e-02</internalNodes>
          <leafValues>
            1.7408654093742371e-01 -7.8875905275344849e-01</leafValues></_>
        <_>
          <internalNodes>
            0 -1 100 5.1603419706225395e-03</internalNodes>
          <leafValues>
            -2.0343248546123505e-01 6.5646445751190186e-01</leafValues></_>
        <_>
          <internalNodes>
            0 -1 136 -3.1840687151998281e-03</internalNodes>
          <leafValues>
            1.5196667611598969e-01 -7.6804864406585693e-01</leafValues></_>
        <_>
          <internalNodes>
            0 -1 127 -3.6719633499160409e-04</internalNodes>
          <leafValues>
            1.2556137144565582e-01 -6.8839842081069946e-01</leafValues></_>
        <_>
          <internalNodes>
            0 -1 14 1.3980087824165821e-02</internalNodes>
          <leafValues>
            -4.7858944535255432e-01 1.9102352857589722e-01</leafValues></_>
        <_>
          <internalNodes>
            0 -1 125 -8.8706528767943382e-03</internalNodes>
          <leafValues>
            2.9168131947517395e-01 -3.3825668692588806e-01</leafValues></_>
        <_>
          <internalNodes>
            0 -1 90 -1.5004934743046761e-02</internalNodes>
          <leafValues>
            -7.9928886890411377e-01 1.3845621049404144e-01</leafValues></_>
        <_>
          <internalNodes>
            0 -1 71 8.6428485810756683e-03</internalNodes>
          <leafValues>
            9.5534570515155792e-02 -8.1313771009445190e-01</leafValues></_>
        <_>
          <internalNodes>
            0 -1 21 7.4740609852597117e-04</internalNodes>
          <leafValues>
            1.3782769441604614e-01 -6.5791636705398560e-01</leafValues></_></weakClassifiers></_>
    <!-- stage 16 -->
    <_>
      <maxWeakCount>12</maxWeakCount>
      <stageThreshold>-1.9427340030670166e+00</stageThreshold>
      <weakClassifiers>
        <_>
          <internalNodes>
            0 -1 27 -4.3371297419071198e-02</internalNodes>
          <leafValues>
            -9.5305830240249634e-02 -7.9744017124176025e-01</leafValues></_>
        <_>
          <internalNodes>
            0 -1 105 4.3289386667311192e-03</internalNodes>
          <leafValues>
            -3.7234234809875488e-01 3.9984422922134399e-01</leafValues></_>
        <_>
          <internalNodes>
            0 -1 78 -1.1505642905831337e-02</internalNodes>
          <leafValues>
            -5.7337844371795654e-01 1.9290937483310699e-01</leafValues></_>
        <_>
          <internalNodes>
            0 -1 67 8.7209912016987801e-03</internalNodes>
          <leafValues>
            -4.6040359139442444e-01 2.1199305355548859e-01</leafValues></_>
        <_>
          <internalNodes>
            0 -1 89 1.8911015242338181e-02</internalNodes>
          <leafValues>
            1.6437026858329773e-01 -7.5906497240066528e-01</leafValues></_>
        <_>
          <internalNodes>
            0 -1 134 7.9255653545260429e-03</internalNodes>
          <leafValues>
            -1.5742745995521545e-01 6.7669564485549927e-01</leafValues></_>
        <_>
          <internalNodes>
            0 -1 87 5.3363507613539696e-03</internalNodes>
          <leafValues>
            1.6534958779811859e-01 -6.7452841997146606e-01</leafValues></_>
        <_>
          <internalNodes>
            0 -1 51 -8.7440069764852524e-03</internalNodes>
          <leafValues>
            -8.8600438833236694e-01 1.0770708322525024e-01</leafValues></_>
        <_>
          <internalNodes>
            0 -1 6 6.6533394157886505e-02</internalNodes>
          <leafValues>
            -5.1578950881958008e-01 1.9027040898799896e-01</leafValues></_>
        <_>
          <internalNodes>
            0 -1 106 1.6780819278210402e-03</internalNodes>
          <leafValues>
            -2.0584705471992493e-01 5.3005117177963257e-01</leafValues></_>
        <_>
          <internalNodes>
            0 -1 152 4.8408890143036842e-04</internalNodes>
          <leafValues>
            1.9088128209114075e-01 -6.2227916717529297e-01</leafValues></_>
        <_>
          <internalNodes>
            0 -1 52 8.2407854497432709e-03</internalNodes>
          <leafValues>
            -1.9447351992130280e-01 5.3499269485473633e-01</leafValues></_></weakClassifiers></_>
    <!-- stage 17 -->
    <_>
      <maxWeakCount>12</maxWeakCount>
      <stageThreshold>-1.7061890363693237e+00</stageThreshold>
      <weakClassifiers>
        <_>
          <internalNodes>
            0 -1 11 4.0776826441287994e-02</internalNodes>
          <leafValues>
            -7.6838636398315430e-01 -1.4749263226985931e-01</leafValues></_>
        <_>
          <internalNodes>
            0 -1 86 1.8696170300245285e-03</internalNodes>
          <leafValues>
            -4.5678335428237915e-01 2.4617390334606171e-01</leafValues></_>
        <_>
          <internalNodes>
            0 -1 73 2.0047973841428757e-02</internalNodes>
          <leafValues>
            -5.0165998935699463e-01 2.1686266362667084e-01</leafValues></_>
        <_>
          <internalNodes>
            0 -1 63 1.3768263161182404e-02</internalNodes>
          <leafValues>
            1.7370472848415375e-01 -6.5489292144775391e-01</leafValues></_>
        <_>
          <internalNodes>
            0 -1 111 -3.9340004324913025e-02</internalNodes>
          <leafValues>
            -7.8134912252426147e-01 1.3987833261489868e-01</leafValues></_>
        <_>
          <internalNodes>
            0 -1 95 1.1894949711859226e-02</internalNodes>
          <leafValues>
            1.2476737052202225e-01 -8.3500307798385620e-01</leafValues></_>
        <_>
          <internalNodes>
            0 -1 50 1.4946934580802917e-01</internalNodes>
          <leafValues>
            -4.5318162441253662e-01 2.1587102115154266e-01</leafValues></_>
        <_>
          <internalNodes>
            0 -1 77 1.3301016762852669e-02</internalNodes>
          <leafValues>
            -1.9180770218372345e-01 5.7954835891723633e-01</leafValues></_>
        <_>
          <internalNodes>
            0 -1 116 -7.0451651699841022e-03</internalNodes>
          <leafValues>
            -8.6338812112808228e-01 1.2941786646842957e-01</leafValues></_>
        <_>
          <internalNodes>
            0 -1 93 4.8042763955891132e-03</internalNodes>
          <leafValues>
            -2.3063468933105469e-01 5.3183966875076294e-01</leafValues></_>
        <_>
          <internalNodes>
            0 -1 112 -5.4643675684928894e-02</internalNodes>
          <leafValues>
            -9.6418476104736328e-01 1.1751871556043625e-01</leafValues></_>
        <_>
          <internalNodes>
            0 -1 4 1.3307807967066765e-03</internalNodes>
          <leafValues>
            2.1097764372825623e-01 -4.2280647158622742e-01</leafValues></_></weakClassifiers></_></stages>
  <features>
    <_>
      <rects>
        <_>
          0 0 6 6 -1.</_>
        <_>
          0 0 3 3 2.</_>
        <_>
          3 3 3 3 2.</_></rects>
      <tilted>0</tilted></_>
    <_>
      <rects>
        <_>
          0 0 18 6 -1.</_>
        <_>
          6 0 6 6 3.</_></rects>
      <tilted>0</tilted></_>
    <_>
      <rects>
        <_>
          0 2 10 2 -1.</_>
        <_>
          5 2 5 2 2.</_></rects>
      <tilted>0</tilted></_>
    <_>
      <rects>
        <_>
          0 2 18 18 -1.</_>
        <_>
          0 8 18 6 3.</_></rects>
      <tilted>0</tilted></_>
    <_>
      <rects>
        <_>
          0 3 1 4 -1.</_>
        <_>
          0 5 1 2 2.</_></rects>
      <tilted>0</tilted></_>
    <_>
      <rects>
        <_>
          0 4 6 13 -1.</_>
        <_>
          3 4 3 13 2.</_></rects>
      <tilted>0</tilted></_>
    <_>
      <rects>
        <_>
          0 4 18 6 -1.</_>
        <_>
          0 7 18 3 2.</_></rects>
      <tilted>0</tilted></_>
    <_>
      <rects>
        <_>
          0 7 3 4 -1.</_>
        <_>
          1 7 1 4 3.</_></rects>
      <tilted>0</tilted></_>
    <_>
      <rects>
        <_>
          0 7 2 6 -1.</_>
        <_>
          1 7 1 6 2.</_></rects>
      <tilted>0</tilted></_>
    <_>
      <rects>
        <_>
          0 7 6 7 -1.</_>
        <_>
          2 7 2 7 3.</_></rects>
      <tilted>0</tilted></_>
    <_>
      <rects>
        <_>
          0 9 4 5 -1.</_>
        <_>
          2 9 2 5 2.</_></rects>
      <tilted>0</tilted></_>
    <_>
      <rects>
        <_>
          0 9 6 8 -1.</_>
        <_>
          0 9 3 4 2.</_>
        <_>
          3 13 3 4 2.</_></rects>
      <tilted>0</tilted></_>
    <_>
      <rects>
        <_>
          0 11 18 8 -1.</_>
        <_>
          0 15 18 4 2.</_></rects>
      <tilted>0</tilted></_>
    <_>
      <rects>
        <_>
          0 12 14 8 -1.</_>
        <_>
          7 12 7 8 2.</_></rects>
      <tilted>0</tilted></_>
    <_>
      <rects>
        <_>
          0 14 8 3 -1.</_>
        <_>
          4 14 4 3 2.</_></rects>
      <tilted>0</tilted></_>
    <_>
      <rects>
        <_>
          0 16 8 1 -1.</_>
        <_>
          4 16 4 1 2.</_></rects>
      <tilted>0</tilted></_>
    <_>
      <rects>
        <_>
          0 16 10 3 -1.</_>
        <_>
          5 16 5 3 2.</_></rects>
      <tilted>0</tilted></_>
    <_>
      <rects>
        <_>
          1 1 1 18 -1.</_>
        <_>
          1 7 1 6 3.</_></rects>
      <tilted>0</tilted></_>
    <_>
      <rects>
        <_>
          1 1 2 18 -1.</_>
        <_>
          1 7 2 6 3.</_></rects>
      <tilted>0</tilted></_>
    <_>
      <rects>
        <_>
          1 2 8 10 -1.</_>
        <_>
          1 2 4 5 2.</_>
        <_>
          5 7 4 5 2.</_></rects>
      <tilted>0</tilted></_>
    <_>
      <rects>
        <_>
          1 2 18 3 -1.</_>
        <_>
          7 2 6 3 3.</_></rects>
      <tilted>0</tilted></_>
    <_>
      <rects>
        <_>
          1 3 1 3 -1.</_>
        <_>
          1 4 1 1 3.</_></rects>
      <tilted>0</tilted></_>
    <_>
      <rects>
        <_>
          1 3 1 15 -1.</_>
        <_>
          1 8 1 5 3.</_></rects>
      <tilted>0</tilted></_>
    <_>
      <rects>
        <_>
          1 3 6 8 -1.</_>
        <_>
          1 3 3 4 2.</_>
        <_>
          4 7 3 4 2.</_></rects>
      <tilted>0</tilted></_>
    <_>
      <rects>
        <_>
          1 4 1 12 -1.</_>
        <_>
          1 8 1 4 3.</_></rects>
      <tilted>0</tilted></_>
    <_>
      <rects>
        <_>
          1 4 16 6 -1.</_>
        <_>
          1 7 16 3 2.</_></rects>
      <tilted>0</tilted></_>
    <_>
      <rects>
        <_>
          1 6 6 10 -1.</_>
        <_>
          1 6 3 5 2.</_>
        <_>
          4 11 3 5 2.</_></rects>
      <tilted>0</tilted></_>
    <_>
      <rects>
        <_>
          1 8 9 5 -1.</_>
        <_>
          4 8 3 5 3.</_></rects>
      <tilted>0</tilted></_>
    <_>
      <rects>
        <_>
          1 9 3 3 -1.</_>
        <_>
          2 9 1 3 3.</_></rects>
      <tilted>0</tilted></_>
    <_>
      <rects>
        <_>
          1 9 9 4 -1.</_>
        <_>
          4 9 3 4 3.</_></rects>
      <tilted>0</tilted></_>
    <_>
      <rects>
        <_>
          1 9 6 10 -1.</_>
        <_>
          1 9 3 5 2.</_>
        <_>
          4 14 3 5 2.</_></rects>
      <tilted>0</tilted></_>
    <_>
      <rects>
        <_>
          1 10 6 8 -1.</_>
        <_>
          1 10 3 4 2.</_>
        <_>
          4 14 3 4 2.</_></rects>
      <tilted>0</tilted></_>
    <_>
      <rects>
        <_>
          1 11 6 6 -1.</_>
        <_>
          1 11 3 3 2.</_>
        <_>
          4 14 3 3 2.</_></rects>
      <tilted>0</tilted></_>
    <_>
      <rects>
        <_>
          1 11 19 8 -1.</_>
        <_>
          1 15 19 4 2.</_></rects>
      <tilted>0</tilted></_>
    <_>
      <rects>
        <_>
          1 12 18 8 -1.</_>
        <_>
          1 16 18 4 2.</_></rects>
      <tilted>0</tilted></_>
    <_>
      <rects>
        <_>
          1 15 16 4 -1.</_>
        <_>
          1 17 16 2 2.</_></rects>
      <tilted>0</tilted></_>
    <_>
      <rects>
        <_>
          1 17 1 2 -1.</_>
        <_>
          1 18 1 1 2.</_></rects>
      <tilted>0</tilted></_>
    <_>
      <rects>
        <_>
          2 1 8 5 -1.</_>
        <_>
          6 1 4 5 2.</_></rects>
      <tilted>0</tilted></_>
    <_>
      <rects>
        <_>
          2 1 12 4 -1.</_>
        <_>
          8 1 6 4 2.</_></rects>
      <tilted>0</tilted></_>
    <_>
      <rects>
        <_>
          2 1 18 18 -1.</_>
        <_>
          2 7 18 6 3.</_></rects>
      <tilted>0</tilted></_>
    <_>
      <rects>
        <_>
          2 2 6 6 -1.</_>
        <_>
          2 5 6 3 2.</_></rects>
      <tilted>0</tilted></_>
    <_>
      <rects>
        <_>
          2 7 15 12 -1.</_>
        <_>
          2 11 15 4 3.</_></rects>
      <tilted>0</tilted></_>
    <_>
      <rects>
        <_>
          2 7 17 9 -1.</_>
        <_>
          2 10 17 3 3.</_></rects>
      <tilted>0</tilted></_>
    <_>
      <rects>
        <_>
          2 10 11 6 -1.</_>
        <_>
          2 13 11 3 2.</_></rects>
      <tilted>0</tilted></_>
    <_>
      <rects>
        <_>
          2 14 14 6 -1.</_>
        <_>
          2 17 14 3 2.</_></rects>
      <tilted>0</tilted></_>
    <_>
      <rects>
        <_>
          2 14 15 6 -1.</_>
        <_>
          2 17 15 3 2.</_></rects>
      <tilted>0</tilted></_>
    <_>
      <rects>
        <_>
          3 1 6 3 -1.</_>
        <_>
          6 1 3 3 2.</_></rects>
      <tilted>0</tilted></_>
    <_>
      <rects>
        <_>
          3 1 4 4 -1.</_>
        <_>
          3 3 4 2 2.</_></rects>
      <tilted>0</tilted></_>
    <_>
      <rects>
        <_>
          3 1 16 10 -1.</_>
        <_>
          3 6 16 5 2.</_></rects>
      <tilted>0</tilted></_>
    <_>
      <rects>
        <_>
          3 2 4 3 -1.</_>
        <_>
          5 2 2 3 2.</_></rects>
      <tilted>0</tilted></_>
    <_>
      <rects>
        <_>
          3 2 17 10 -1.</_>
        <_>
          3 7 17 5 2.</_></rects>
      <tilted>0</tilted></_>
    <_>
      <rects>
        <_>
          3 8 8 4 -1.</_>
        <_>
          3 10 8 2 2.</_></rects>
      <tilted>0</tilted></_>
    <_>
      <rects>
        <_>
          3 9 3 4 -1.</_>
        <_>
          4 9 1 4 3.</_></rects>
      <tilted>0</tilted></_>
    <_>
      <rects>
        <_>
          3 10 6 3 -1.</_>
        <_>
          5 10 2 3 3.</_></rects>
      <tilted>0</tilted></_>
    <_>
      <rects>
        <_>
          3 13 6 6 -1.</_>
        <_>
          3 13 3 3 2.</_>
        <_>
          6 16 3 3 2.</_></rects>
      <tilted>0</tilted></_>
    <_>
      <rects>
        <_>
          4 1 10 6 -1.</_>
        <_>
          9 1 5 6 2.</_></rects>
      <tilted>0</tilted></_>
    <_>
      <rects>
        <_>
          4 4 10 6 -1.</_>
        <_>
          4 7 10 3 2.</_></rects>
      <tilted>0</tilted></_>
    <_>
      <rects>
        <_>
          4 5 11 6 -1.</_>
        <_>
          4 8 11 3 2.</_></rects>
      <tilted>0</tilted></_>
    <_>
      <rects>
        <_>
          4 8 12 2 -1.</_>
        <_>
          10 8 6 2 2.</_></rects>
      <tilted>0</tilted></_>
    <_>
      <rects>
        <_>
          4 9 12 6 -1.</_>
        <_>
          4 11 12 2 3.</_></rects>
      <tilted>0</tilted></_>
    <_>
      <rects>
        <_>
          4 16 11 4 -1.</_>
        <_>
          4 18 11 2 2.</_></rects>
      <tilted>0</tilted></_>
    <_>
      <rects>
        <_>
          5 0 9 9 -1.</_>
        <_>
          8 0 3 9 3.</_></rects>
      <tilted>0</tilted></_>
    <_>
      <rects>
        <_>
          5 1 6 12 -1.</_>
        <_>
          5 7 6 6 2.</_></rects>
      <tilted>0</tilted></_>
    <_>
      <rects>
        <_>
          5 3 3 6 -1.</_>
        <_>
          5 6 3 3 2.</_></rects>
      <tilted>0</tilted></_>
    <_>
      <rects>
        <_>
          5 3 4 9 -1.</_>
        <_>
          5 6 4 3 3.</_></rects>
      <tilted>0</tilted></_>
    <_>
      <rects>
        <_>
          5 4 6 7 -1.</_>
        <_>
          8 4 3 7 2.</_></rects>
      <tilted>0</tilted></_>
    <_>
      <rects>
        <_>
          5 4 10 4 -1.</_>
        <_>
          10 4 5 4 2.</_></rects>
      <tilted>0</tilted></_>
    <_>
      <rects>
        <_>
          5 7 6 11 -1.</_>
        <_>
          8 7 3 11 2.</_></rects>
      <tilted>0</tilted></_>
    <_>
      <rects>
        <_>
          6 1 12 8 -1.</_>
        <_>
          6 1 6 4 2.</_>
        <_>
          12 5 6 4 2.</_></rects>
      <tilted>0</tilted></_>
    <_>
      <rects>
        <_>
          6 1 8 12 -1.</_>
        <_>
          6 5 8 4 3.</_></rects>
      <tilted>0</tilted></_>
    <_>
      <rects>
        <_>
          6 3 8 5 -1.</_>
        <_>
          10 3 4 5 2.</_></rects>
      <tilted>0</tilted></_>
    <_>
      <rects>
        <_>
          6 4 10 4 -1.</_>
        <_>
          11 4 5 4 2.</_></rects>
      <tilted>0</tilted></_>
    <_>
      <rects>
        <_>
          6 8 3 4 -1.</_>
        <_>
          7 8 1 4 3.</_></rects>
      <tilted>0</tilted></_>
    <_>
      <rects>
        <_>
          6 8 9 11 -1.</_>
        <_>
          9 8 3 11 3.</_></rects>
      <tilted>0</tilted></_>
    <_>
      <rects>
        <_>
          6 16 9 4 -1.</_>
        <_>
          9 16 3 4 3.</_></rects>
      <tilted>0</tilted></_>
    <_>
      <rects>
        <_>
          7 0 9 9 -1.</_>
        <_>
          10 0 3 9 3.</_></rects>
      <tilted>0</tilted></_>
    <_>
      <rects>
        <_>
          7 1 8 16 -1.</_>
        <_>
          11 1 4 16 2.</_></rects>
      <tilted>0</tilted></_>
    <_>
      <rects>
        <_>
          7 1 6 3 -1.</_>
        <_>
          7 2 6 1 3.</_></rects>
      <tilted>0</tilted></_>
    <_>
      <rects>
        <_>
          7 3 8 4 -1.</_>
        <_>
          11 3 4 4 2.</_></rects>
      <tilted>0</tilted></_>
    <_>
      <rects>
        <_>
          7 5 8 14 -1.</_>
        <_>
          7 5 4 7 2.</_>
        <_>
          11 12 4 7 2.</_></rects>
      <tilted>0</tilted></_>
    <_>
      <rects>
        <_>
          7 12 7 6 -1.</_>
        <_>
          7 15 7 3 2.</_></rects>
      <tilted>0</tilted></_>
    <_>
      <rects>
        <_>
          8 2 4 3 -1.</_>
        <_>
          8 3 4 1 3.</_></rects>
      <tilted>0</tilted></_>
    <_>
      <rects>
        <_>
          8 3 4 3 -1.</_>
        <_>
          8 4 4 1 3.</_></rects>
      <tilted>0</tilted></_>
    <_>
      <rects>
        <_>
          8 4 4 3 -1.</_>
        <_>
          8 5 4 1 3.</_></rects>
      <tilted>0</tilted></_>
    <_>
      <rects>
        <_>
          8 4 6 12 -1.</_>
        <_>
          8 8 6 4 3.</_></rects>
      <tilted>0</tilted></_>
    <_>
      <rects>
        <_>
          8 5 4 3 -1.</_>
        <_>
          8 6 4 1 3.</_></rects>
      <tilted>0</tilted></_>
    <_>
      <rects>
        <_>
          8 8 2 8 -1.</_>
        <_>
          8 8 1 4 2.</_>
        <_>
          9 12 1 4 2.</_></rects>
      <tilted>0</tilted></_>
    <_>
      <rects>
        <_>
          8 8 6 4 -1.</_>
        <_>
          8 10 6 2 2.</_></rects>
      <tilted>0</tilted></_>
    <_>
      <rects>
        <_>
          8 9 2 1 -1.</_>
        <_>
          9 9 1 1 2.</_></rects>
      <tilted>0</tilted></_>
    <_>
      <rects>
        <_>
          8 13 6 7 -1.</_>
        <_>
          10 13 2 7 3.</_></rects>
      <tilted>0</tilted></_>
    <_>
      <rects>
        <_>
          8 13 6 4 -1.</_>
        <_>
          11 13 3 4 2.</_></rects>
      <tilted>0</tilted></_>
    <_>
      <rects>
        <_>
          8 15 12 4 -1.</_>
        <_>
          14 15 6 4 2.</_></rects>
      <tilted>0</tilted></_>
    <_>
      <rects>
        <_>
          8 16 12 3 -1.</_>
        <_>
          14 16 6 3 2.</_></rects>
      <tilted>0</tilted></_>
    <_>
      <rects>
        <_>
          9 0 2 3 -1.</_>
        <_>
          9 1 2 1 3.</_></rects>
      <tilted>0</tilted></_>
    <_>
      <rects>
        <_>
          9 3 2 3 -1.</_>
        <_>
          9 4 2 1 3.</_></rects>
      <tilted>0</tilted></_>
    <_>
      <rects>
        <_>
          9 3 2 14 -1.</_>
        <_>
          9 10 2 7 2.</_></rects>
      <tilted>0</tilted></_>
    <_>
      <rects>
        <_>
          9 3 3 3 -1.</_>
        <_>
          9 4 3 1 3.</_></rects>
      <tilted>0</tilted></_>
    <_>
      <rects>
        <_>
          9 3 3 12 -1.</_>
        <_>
          9 7 3 4 3.</_></rects>
      <tilted>0</tilted></_>
    <_>
      <rects>
        <_>
          9 3 5 14 -1.</_>
        <_>
          9 10 5 7 2.</_></rects>
      <tilted>0</tilted></_>
    <_>
      <rects>
        <_>
          9 4 3 12 -1.</_>
        <_>
          9 10 3 6 2.</_></rects>
      <tilted>0</tilted></_>
    <_>
      <rects>
        <_>
          9 5 2 2 -1.</_>
        <_>
          9 6 2 1 2.</_></rects>
      <tilted>0</tilted></_>
    <_>
      <rects>
        <_>
          9 5 3 3 -1.</_>
        <_>
          9 6 3 1 3.</_></rects>
      <tilted>0</tilted></_>
    <_>
      <rects>
        <_>
          9 5 6 9 -1.</_>
        <_>
          9 8 6 3 3.</_></rects>
      <tilted>0</tilted></_>
    <_>
      <rects>
        <_>
          9 6 1 3 -1.</_>
        <_>
          9 7 1 1 3.</_></rects>
      <tilted>0</tilted></_>
    <_>
      <rects>
        <_>
          9 9 2 6 -1.</_>
        <_>
          9 11 2 2 3.</_></rects>
      <tilted>0</tilted></_>
    <_>
      <rects>
        <_>
          9 11 2 3 -1.</_>
        <_>
          9 12 2 1 3.</_></rects>
      <tilted>0</tilted></_>
    <_>
      <rects>
        <_>
          9 12 1 3 -1.</_>
        <_>
          9 13 1 1 3.</_></rects>
      <tilted>0</tilted></_>
    <_>
      <rects>
        <_>
          9 12 6 6 -1.</_>
        <_>
          12 12 3 6 2.</_></rects>
      <tilted>0</tilted></_>
    <_>
      <rects>
        <_>
          10 0 6 10 -1.</_>
        <_>
          13 0 3 10 2.</_></rects>
      <tilted>0</tilted></_>
    <_>
      <rects>
        <_>
          10 2 8 2 -1.</_>
        <_>
          14 2 4 2 2.</_></rects>
      <tilted>0</tilted></_>
    <_>
      <rects>
        <_>
          10 3 1 3 -1.</_>
        <_>
          10 4 1 1 3.</_></rects>
      <tilted>0</tilted></_>
    <_>
      <rects>
        <_>
          10 3 6 7 -1.</_>
        <_>
          13 3 3 7 2.</_></rects>
      <tilted>0</tilted></_>
    <_>
      <rects>
        <_>
          10 3 10 2 -1.</_>
        <_>
          15 3 5 2 2.</_></rects>
      <tilted>0</tilted></_>
    <_>
      <rects>
        <_>
          10 5 5 12 -1.</_>
        <_>
          10 11 5 6 2.</_></rects>
      <tilted>0</tilted></_>
    <_>
      <rects>
        <_>
          10 8 3 2 -1.</_>
        <_>
          11 8 1 2 3.</_></rects>
      <tilted>0</tilted></_>
    <_>
      <rects>
        <_>
          10 8 6 9 -1.</_>
        <_>
          13 8 3 9 2.</_></rects>
      <tilted>0</tilted></_>
    <_>
      <rects>
        <_>
          10 8 5 4 -1.</_>
        <_>
          10 10 5 2 2.</_></rects>
      <tilted>0</tilted></_>
    <_>
      <rects>
        <_>
          10 8 6 10 -1.</_>
        <_>
          10 13 6 5 2.</_></rects>
      <tilted>0</tilted></_>
    <_>
      <rects>
        <_>
          10 9 2 4 -1.</_>
        <_>
          10 9 1 2 2.</_>
        <_>
          11 11 1 2 2.</_></rects>
      <tilted>0</tilted></_>
    <_>
      <rects>
        <_>
          10 9 10 2 -1.</_>
        <_>
          15 9 5 2 2.</_></rects>
      <tilted>0</tilted></_>
    <_>
      <rects>
        <_>
          10 14 6 6 -1.</_>
        <_>
          12 14 2 6 3.</_></rects>
      <tilted>0</tilted></_>
    <_>
      <rects>
        <_>
          10 15 10 4 -1.</_>
        <_>
          15 15 5 4 2.</_></rects>
      <tilted>0</tilted></_>
    <_>
      <rects>
        <_>
          11 1 7 8 -1.</_>
        <_>
          11 5 7 4 2.</_></rects>
      <tilted>0</tilted></_>
    <_>
      <rects>
        <_>
          11 2 6 6 -1.</_>
        <_>
          11 2 3 3 2.</_>
        <_>
          14 5 3 3 2.</_></rects>
      <tilted>0</tilted></_>
    <_>
      <rects>
        <_>
          11 3 5 9 -1.</_>
        <_>
          11 6 5 3 3.</_></rects>
      <tilted>0</tilted></_>
    <_>
      <rects>
        <_>
          11 6 6 7 -1.</_>
        <_>
          13 6 2 7 3.</_></rects>
      <tilted>0</tilted></_>
    <_>
      <rects>
        <_>
          11 14 1 3 -1.</_>
        <_>
          11 15 1 1 3.</_></rects>
      <tilted>0</tilted></_>
    <_>
      <rects>
        <_>
          12 0 4 5 -1.</_>
        <_>
          14 0 2 5 2.</_></rects>
      <tilted>0</tilted></_>
    <_>
      <rects>
        <_>
          12 1 6 4 -1.</_>
        <_>
          15 1 3 4 2.</_></rects>
      <tilted>0</tilted></_>
    <_>
      <rects>
        <_>
          12 1 5 4 -1.</_>
        <_>
          12 3 5 2 2.</_></rects>
      <tilted>0</tilted></_>
    <_>
      <rects>
        <_>
          12 3 8 3 -1.</_>
        <_>
          16 3 4 3 2.</_></rects>
      <tilted>0</tilted></_>
    <_>
      <rects>
        <_>
          12 3 6 4 -1.</_>
        <_>
          12 5 6 2 2.</_></rects>
      <tilted>0</tilted></_>
    <_>
      <rects>
        <_>
          12 4 4 12 -1.</_>
        <_>
          12 10 4 6 2.</_></rects>
      <tilted>0</tilted></_>
    <_>
      <rects>
        <_>
          12 8 3 4 -1.</_>
        <_>
          13 8 1 4 3.</_></rects>
      <tilted>0</tilted></_>
    <_>
      <rects>
        <_>
          12 9 3 3 -1.</_>
        <_>
          13 9 1 3 3.</_></rects>
      <tilted>0</tilted></_>
    <_>
      <rects>
        <_>
          12 9 8 10 -1.</_>
        <_>
          12 9 4 5 2.</_>
        <_>
          16 14 4 5 2.</_></rects>
      <tilted>0</tilted></_>
    <_>
      <rects>
        <_>
          12 12 8 4 -1.</_>
        <_>
          12 14 8 2 2.</_></rects>
      <tilted>0</tilted></_>
    <_>
      <rects>
        <_>
          12 14 8 5 -1.</_>
        <_>
          16 14 4 5 2.</_></rects>
      <tilted>0</tilted></_>
    <_>
      <rects>
        <_>
          13 8 3 5 -1.</_>
        <_>
          14 8 1 5 3.</_></rects>
      <tilted>0</tilted></_>
    <_>
      <rects>
        <_>
          14 2 6 10 -1.</_>
        <_>
          14 2 3 5 2.</_>
        <_>
          17 7 3 5 2.</_></rects>
      <tilted>0</tilted></_>
    <_>
      <rects>
        <_>
          14 3 6 8 -1.</_>
        <_>
          14 3 3 4 2.</_>
        <_>
          17 7 3 4 2.</_></rects>
      <tilted>0</tilted></_>
    <_>
      <rects>
        <_>
          14 7 6 5 -1.</_>
        <_>
          17 7 3 5 2.</_></rects>
      <tilted>0</tilted></_>
    <_>
      <rects>
        <_>
          14 8 6 10 -1.</_>
        <_>
          14 8 3 5 2.</_>
        <_>
          17 13 3 5 2.</_></rects>
      <tilted>0</tilted></_>
    <_>
      <rects>
        <_>
          14 9 6 2 -1.</_>
        <_>
          17 9 3 2 2.</_></rects>
      <tilted>0</tilted></_>
    <_>
      <rects>
        <_>
          14 13 6 4 -1.</_>
        <_>
          17 13 3 4 2.</_></rects>
      <tilted>0</tilted></_>
    <_>
      <rects>
        <_>
          16 9 3 3 -1.</_>
        <_>
          17 9 1 3 3.</_></rects>
      <tilted>0</tilted></_>
    <_>
      <rects>
        <_>
          17 1 3 18 -1.</_>
        <_>
          17 7 3 6 3.</_></rects>
      <tilted>0</tilted></_>
    <_>
      <rects>
        <_>
          17 6 3 7 -1.</_>
        <_>
          18 6 1 7 3.</_></rects>
      <tilted>0</tilted></_>
    <_>
      <rects>
        <_>
          17 6 3 8 -1.</_>
        <_>
          18 6 1 8 3.</_></rects>
      <tilted>0</tilted></_>
    <_>
      <rects>
        <_>
          17 7 2 10 -1.</_>
        <_>
          18 7 1 10 2.</_></rects>
      <tilted>0</tilted></_>
    <_>
      <rects>
        <_>
          18 0 1 4 -1.</_>
        <_>
          18 2 1 2 2.</_></rects>
      <tilted>0</tilted></_>
    <_>
      <rects>
        <_>
          18 1 1 18 -1.</_>
        <_>
          18 7 1 6 3.</_></rects>
      <tilted>0</tilted></_>
    <_>
      <rects>
        <_>
          18 2 1 2 -1.</_>
        <_>
          18 3 1 1 2.</_></rects>
      <tilted>0</tilted></_>
    <_>
      <rects>
        <_>
          18 3 1 15 -1.</_>
        <_>
          18 8 1 5 3.</_></rects>
      <tilted>0</tilted></_>
    <_>
      <rects>
        <_>
          18 15 2 2 -1.</_>
        <_>
          18 16 2 1 2.</_></rects>
      <tilted>0</tilted></_>
    <_>
      <rects>
        <_>
          18 17 1 2 -1.</_>
        <_>
          18 18 1 1 2.</_></rects>
      <tilted>0</tilted></_>
    <_>
      <rects>
        <_>
          19 0 1 2 -1.</_>
        <_>
          19 1 1 1 2.</_></rects>
      <tilted>0</tilted></_></features></cascade>
</opencv_storage>
