<?xml version="1.0"?>
<opencv_storage>
<cascade>
  <stageType>BOOST</stageType>
  <featureType>HAAR</featureType>
  <height>20</height>
  <width>20</width>
  <stageParams>
    <boostType>GAB</boostType>
    <minHitRate>9.9500000476837158e-01</minHitRate>
    <maxFalseAlarm>5.0000000000000000e-01</maxFalseAlarm>
    <weightTrimRate>9.4999999999999996e-01</weightTrimRate>
    <maxDepth>1</maxDepth>
    <maxWeakCount>100</maxWeakCount></stageParams>
  <featureParams>
    <maxCatCount>0</maxCatCount>
    <featSize>1</featSize>
    <mode>BASIC</mode></featureParams>
  <stageNum>20</stageNum>
  <stages>
    <!-- stage 0 -->
    <_>
      <maxWeakCount>6</maxWeakCount>
      <stageThreshold>-2.2405450344085693e+00</stageThreshold>
      <weakClassifiers>
        <_>
          <internalNodes>
            0 -1 17 8.9113742113113403e-02</internalNodes>
          <leafValues>
            -8.5968971252441406e-01 6.6933584213256836e-01</leafValues></_>
        <_>
          <internalNodes>
            0 -1 23 3.0698436498641968e-01</internalNodes>
          <leafValues>
            -8.5807472467422485e-01 4.0976279973983765e-01</leafValues></_>
        <_>
          <internalNodes>
            0 -1 20 4.1288942098617554e-02</internalNodes>
          <leafValues>
            -7.9395502805709839e-01 4.7088062763214111e-01</leafValues></_>
        <_>
          <internalNodes>
            0 -1 87 2.0900743082165718e-02</internalNodes>
          <leafValues>
            -8.2729893922805786e-01 2.9523983597755432e-01</leafValues></_>
        <_>
          <internalNodes>
            0 -1 147 -5.2750920876860619e-03</internalNodes>
          <leafValues>
            4.8251998424530029e-01 -4.8462709784507751e-01</leafValues></_>
        <_>
          <internalNodes>
            0 -1 78 1.3703388161957264e-02</internalNodes>
          <leafValues>
            -4.6856275200843811e-01 4.6056157350540161e-01</leafValues></_></weakClassifiers></_>
    <!-- stage 1 -->
    <_>
      <maxWeakCount>5</maxWeakCount>
      <stageThreshold>-1.6241239309310913e+00</stageThreshold>
      <weakClassifiers>
        <_>
          <internalNodes>
            0 -1 33 2.3969173431396484e-02</internalNodes>
          <leafValues>
            -8.2760852575302124e-01 6.0612690448760986e-01</leafValues></_>
        <_>
          <internalNodes>
            0 -1 51 -4.0965557098388672e-02</internalNodes>
          <leafValues>
            3.6523804068565369e-01 -8.6007285118103027e-01</leafValues></_>
        <_>
          <internalNodes>
            0 -1 18 2.1378647536039352e-02</internalNodes>
          <leafValues>
            -7.6215672492980957e-01 4.9994826316833496e-01</leafValues></_>
        <_>
          <internalNodes>
            0 -1 119 -4.7655878588557243e-03</internalNodes>
          <leafValues>
            4.6640652418136597e-01 -6.7662274837493896e-01</leafValues></_>
        <_>
          <internalNodes>
            0 -1 5 2.2101562470197678e-02</internalNodes>
          <leafValues>
            -8.6600327491760254e-01 3.6899918317794800e-01</leafValues></_></weakClassifiers></_>
    <!-- stage 2 -->
    <_>
      <maxWeakCount>5</maxWeakCount>
      <stageThreshold>-1.8056865930557251e+00</stageThreshold>
      <weakClassifiers>
        <_>
          <internalNodes>
            0 -1 143 3.9489358663558960e-02</internalNodes>
          <leafValues>
            -7.5556892156600952e-01 7.5221240520477295e-01</leafValues></_>
        <_>
          <internalNodes>
            0 -1 38 -1.7102790996432304e-02</internalNodes>
          <leafValues>
            3.9606505632400513e-01 -8.3394503593444824e-01</leafValues></_>
        <_>
          <internalNodes>
            0 -1 41 6.2932521104812622e-02</internalNodes>
          <leafValues>
            -8.0462074279785156e-01 3.1614738702774048e-01</leafValues></_>
        <_>
          <internalNodes>
            0 -1 139 -3.5974045749753714e-03</internalNodes>
          <leafValues>
            3.4742900729179382e-01 -8.4555786848068237e-01</leafValues></_>
        <_>
          <internalNodes>
            0 -1 19 7.6224366202950478e-03</internalNodes>
          <leafValues>
            -9.3603801727294922e-01 2.4101904034614563e-01</leafValues></_></weakClassifiers></_>
    <!-- stage 3 -->
    <_>
      <maxWeakCount>4</maxWeakCount>
      <stageThreshold>-1.9430264234542847e+00</stageThreshold>
      <weakClassifiers>
        <_>
          <internalNodes>
            0 -1 17 1.1193875968456268e-01</internalNodes>
          <leafValues>
            -7.7250605821609497e-01 7.5842696428298950e-01</leafValues></_>
        <_>
          <internalNodes>
            0 -1 42 3.1495571136474609e-01</internalNodes>
          <leafValues>
            -8.0507439374923706e-01 3.6664348840713501e-01</leafValues></_>
        <_>
          <internalNodes>
            0 -1 141 -5.2687595598399639e-03</internalNodes>
          <leafValues>
            3.1909501552581787e-01 -6.2163120508193970e-01</leafValues></_>
        <_>
          <internalNodes>
            0 -1 106 2.3137263953685760e-02</internalNodes>
          <leafValues>
            -8.2273060083389282e-01 2.5618523359298706e-01</leafValues></_></weakClassifiers></_>
    <!-- stage 4 -->
    <_>
      <maxWeakCount>5</maxWeakCount>
      <stageThreshold>-2.0182104110717773e+00</stageThreshold>
      <weakClassifiers>
        <_>
          <internalNodes>
            0 -1 153 6.6804975271224976e-02</internalNodes>
          <leafValues>
            -7.4120455980300903e-01 7.5232195854187012e-01</leafValues></_>
        <_>
          <internalNodes>
            0 -1 14 1.5897218137979507e-02</internalNodes>
          <leafValues>
            -6.1097717285156250e-01 4.5147669315338135e-01</leafValues></_>
        <_>
          <internalNodes>
            0 -1 28 1.5237493813037872e-01</internalNodes>
          <leafValues>
            -7.3825770616531372e-01 3.4574222564697266e-01</leafValues></_>
        <_>
          <internalNodes>
            0 -1 4 1.6248678788542747e-02</internalNodes>
          <leafValues>
            -7.3740023374557495e-01 3.5559949278831482e-01</leafValues></_>
        <_>
          <internalNodes>
            0 -1 118 -5.8465143665671349e-03</internalNodes>
          <leafValues>
            3.2287937402725220e-01 -6.8389737606048584e-01</leafValues></_></weakClassifiers></_>
    <!-- stage 5 -->
    <_>
      <maxWeakCount>7</maxWeakCount>
      <stageThreshold>-1.4354133605957031e+00</stageThreshold>
      <weakClassifiers>
        <_>
          <internalNodes>
            0 -1 24 5.7475835084915161e-02</internalNodes>
          <leafValues>
            -7.2551321983337402e-01 8.0338984727859497e-01</leafValues></_>
        <_>
          <internalNodes>
            0 -1 133 -1.4022469520568848e-02</internalNodes>
          <leafValues>
            3.7010282278060913e-01 -6.6080081462860107e-01</leafValues></_>
        <_>
          <internalNodes>
            0 -1 135 -5.2367780357599258e-02</internalNodes>
          <leafValues>
            6.4726781845092773e-01 -3.8432323932647705e-01</leafValues></_>
        <_>
          <internalNodes>
            0 -1 8 3.4438945353031158e-02</internalNodes>
          <leafValues>
            -3.3111324906349182e-01 7.0897907018661499e-01</leafValues></_>
        <_>
          <internalNodes>
            0 -1 48 7.0448264479637146e-02</internalNodes>
          <leafValues>
            -8.7185513973236084e-01 3.1081864237785339e-01</leafValues></_>
        <_>
          <internalNodes>
            0 -1 109 8.8059259578585625e-03</internalNodes>
          <leafValues>
            2.3930840194225311e-01 -9.2763710021972656e-01</leafValues></_>
        <_>
          <internalNodes>
            0 -1 15 6.4259991049766541e-03</internalNodes>
          <leafValues>
            -6.9485682249069214e-01 2.6798021793365479e-01</leafValues></_></weakClassifiers></_>
    <!-- stage 6 -->
    <_>
      <maxWeakCount>7</maxWeakCount>
      <stageThreshold>-1.4713097810745239e+00</stageThreshold>
      <weakClassifiers>
        <_>
          <internalNodes>
            0 -1 17 1.2316253036260605e-01</internalNodes>
          <leafValues>
            -7.4415743350982666e-01 5.6149733066558838e-01</leafValues></_>
        <_>
          <internalNodes>
            0 -1 6 2.3241472244262695e-01</internalNodes>
          <leafValues>
            -7.9028195142745972e-01 2.4642269313335419e-01</leafValues></_>
        <_>
          <internalNodes>
            0 -1 60 -2.9468690045177937e-03</internalNodes>
          <leafValues>
            2.4635943770408630e-01 -7.8105360269546509e-01</leafValues></_>
        <_>
          <internalNodes>
            0 -1 46 9.1398432850837708e-03</internalNodes>
          <leafValues>
            -6.9425308704376221e-01 3.4504574537277222e-01</leafValues></_>
        <_>
          <internalNodes>
            0 -1 89 5.6586464779684320e-05</internalNodes>
          <leafValues>
            -9.2802143096923828e-01 1.7737331986427307e-01</leafValues></_>
        <_>
          <internalNodes>
            0 -1 145 1.8083853647112846e-02</internalNodes>
          <leafValues>
            -3.2462310791015625e-01 6.6317325830459595e-01</leafValues></_>
        <_>
          <internalNodes>
            0 -1 148 -4.0990635752677917e-02</internalNodes>
          <leafValues>
            6.4898151159286499e-01 -2.8207242488861084e-01</leafValues></_></weakClassifiers></_>
    <!-- stage 7 -->
    <_>
      <maxWeakCount>6</maxWeakCount>
      <stageThreshold>-1.3101586103439331e+00</stageThreshold>
      <weakClassifiers>
        <_>
          <internalNodes>
            0 -1 22 -3.9899960160255432e-02</internalNodes>
          <leafValues>
            3.8144329190254211e-01 -7.8217822313308716e-01</leafValues></_>
        <_>
          <internalNodes>
            0 -1 150 1.9178552925586700e-01</internalNodes>
          <leafValues>
            -4.2247784137725830e-01 6.5220719575881958e-01</leafValues></_>
        <_>
          <internalNodes>
            0 -1 74 9.7121559083461761e-03</internalNodes>
          <leafValues>
            2.1694073081016541e-01 -8.6187446117401123e-01</leafValues></_>
        <_>
          <internalNodes>
            0 -1 56 3.1834600958973169e-03</internalNodes>
          <leafValues>
            -7.4549478292465210e-01 2.4427832663059235e-01</leafValues></_>
        <_>
          <internalNodes>
            0 -1 35 -1.0744197666645050e-01</internalNodes>
          <leafValues>
            2.0006135106086731e-01 -7.2159659862518311e-01</leafValues></_>
        <_>
          <internalNodes>
            0 -1 147 -5.9060351923108101e-03</internalNodes>
          <leafValues>
            3.1203219294548035e-01 -5.6270927190780640e-01</leafValues></_></weakClassifiers></_>
    <!-- stage 8 -->
    <_>
      <maxWeakCount>9</maxWeakCount>
      <stageThreshold>-1.7163013219833374e+00</stageThreshold>
      <weakClassifiers>
        <_>
          <internalNodes>
            0 -1 142 4.1709609329700470e-02</internalNodes>
          <leafValues>
            -7.5999999046325684e-01 3.3473685383796692e-01</leafValues></_>
        <_>
          <internalNodes>
            0 -1 30 2.6791166514158249e-02</internalNodes>
          <leafValues>
            -5.4763853549957275e-01 3.6459356546401978e-01</leafValues></_>
        <_>
          <internalNodes>
            0 -1 134 2.8286920860409737e-03</internalNodes>
          <leafValues>
            -7.6491594314575195e-01 2.1833512187004089e-01</leafValues></_>
        <_>
          <internalNodes>
            0 -1 49 5.3346110507845879e-03</internalNodes>
          <leafValues>
            -5.3765439987182617e-01 3.4168347716331482e-01</leafValues></_>
        <_>
          <internalNodes>
            0 -1 96 -1.6972264274954796e-02</internalNodes>
          <leafValues>
            1.6924266517162323e-01 -9.3399715423583984e-01</leafValues></_>
        <_>
          <internalNodes>
            0 -1 137 -5.5235819891095161e-03</internalNodes>
          <leafValues>
            7.4965125322341919e-01 -2.6812583208084106e-01</leafValues></_>
        <_>
          <internalNodes>
            0 -1 11 1.0023047775030136e-01</internalNodes>
          <leafValues>
            1.8957121670246124e-01 -9.1431891918182373e-01</leafValues></_>
        <_>
          <internalNodes>
            0 -1 102 5.6301029399037361e-03</internalNodes>
          <leafValues>
            -2.8298798203468323e-01 5.5937331914901733e-01</leafValues></_>
        <_>
          <internalNodes>
            0 -1 47 5.0333999097347260e-03</internalNodes>
          <leafValues>
            -7.4730062484741211e-01 2.0686961710453033e-01</leafValues></_></weakClassifiers></_>
    <!-- stage 9 -->
    <_>
      <maxWeakCount>9</maxWeakCount>
      <stageThreshold>-1.8485765457153320e+00</stageThreshold>
      <weakClassifiers>
        <_>
          <internalNodes>
            0 -1 153 9.2473380267620087e-02</internalNodes>
          <leafValues>
            -6.7194569110870361e-01 8.1034481525421143e-01</leafValues></_>
        <_>
          <internalNodes>
            0 -1 32 1.8843458965420723e-02</internalNodes>
          <leafValues>
            -4.3527269363403320e-01 5.5540823936462402e-01</leafValues></_>
        <_>
          <internalNodes>
            0 -1 122 1.4631262049078941e-02</internalNodes>
          <leafValues>
            1.6035567224025726e-01 -7.9905647039413452e-01</leafValues></_>
        <_>
          <internalNodes>
            0 -1 123 -1.8409870564937592e-02</internalNodes>
          <leafValues>
            -8.4401375055313110e-01 1.9565610587596893e-01</leafValues></_>
        <_>
          <internalNodes>
            0 -1 79 8.5732098668813705e-03</internalNodes>
          <leafValues>
            -5.7680833339691162e-01 2.7518424391746521e-01</leafValues></_>
        <_>
          <internalNodes>
            0 -1 131 5.6536635383963585e-04</internalNodes>
          <leafValues>
            -6.2275665998458862e-01 2.4390861392021179e-01</leafValues></_>
        <_>
          <internalNodes>
            0 -1 152 1.6978200292214751e-03</internalNodes>
          <leafValues>
            1.6422156989574432e-01 -6.9590705633163452e-01</leafValues></_>
        <_>
          <internalNodes>
            0 -1 100 2.9744557105004787e-03</internalNodes>
          <leafValues>
            -2.3517906665802002e-01 6.1378753185272217e-01</leafValues></_>
        <_>
          <internalNodes>
            0 -1 39 -7.7484908979386091e-04</internalNodes>
          <leafValues>
            -7.1664535999298096e-01 2.2561840713024139e-01</leafValues></_></weakClassifiers></_>
    <!-- stage 10 -->
    <_>
      <maxWeakCount>8</maxWeakCount>
      <stageThreshold>-1.4891372919082642e+00</stageThreshold>
      <weakClassifiers>
        <_>
          <internalNodes>
            0 -1 16 8.7458856403827667e-02</internalNodes>
          <leafValues>
            -6.7379987239837646e-01 6.0885608196258545e-01</leafValues></_>
        <_>
          <internalNodes>
            0 -1 108 -9.4452556222677231e-03</internalNodes>
          <leafValues>
            7.3793339729309082e-01 -3.1026521325111389e-01</leafValues></_>
        <_>
          <internalNodes>
            0 -1 91 -9.0050231665372849e-03</internalNodes>
          <leafValues>
            7.0921200513839722e-01 -2.0413552224636078e-01</leafValues></_>
        <_>
          <internalNodes>
            0 -1 132 -5.9765465557575226e-03</internalNodes>
          <leafValues>
            2.8125798702239990e-01 -5.8901464939117432e-01</leafValues></_>
        <_>
          <internalNodes>
            0 -1 9 1.5795197337865829e-02</internalNodes>
          <leafValues>
            -2.0045952498912811e-01 7.8361546993255615e-01</leafValues></_>
        <_>
          <internalNodes>
            0 -1 98 -8.4681510925292969e-03</internalNodes>
          <leafValues>
            -8.4008210897445679e-01 1.8814912438392639e-01</leafValues></_>
        <_>
          <internalNodes>
            0 -1 75 1.8953915685415268e-02</internalNodes>
          <leafValues>
            2.2040431201457977e-01 -8.5635334253311157e-01</leafValues></_>
        <_>
          <internalNodes>
            0 -1 66 2.8728384524583817e-02</internalNodes>
          <leafValues>
            1.3204678893089294e-01 -7.9028862714767456e-01</leafValues></_></weakClassifiers></_>
    <!-- stage 11 -->
    <_>
      <maxWeakCount>10</maxWeakCount>
      <stageThreshold>-1.6421577930450439e+00</stageThreshold>
      <weakClassifiers>
        <_>
          <internalNodes>
            0 -1 151 1.8861282616853714e-02</internalNodes>
          <leafValues>
            -6.8896925449371338e-01 4.1935482621192932e-01</leafValues></_>
        <_>
          <internalNodes>
            0 -1 95 1.8681905930861831e-03</internalNodes>
          <leafValues>
            -4.4804036617279053e-01 3.9388346672058105e-01</leafValues></_>
        <_>
          <internalNodes>
            0 -1 120 9.6336212009191513e-03</internalNodes>
          <leafValues>
            -3.4737533330917358e-01 4.2302426695823669e-01</leafValues></_>
        <_>
          <internalNodes>
            0 -1 36 -2.5872583501040936e-03</internalNodes>
          <leafValues>
            2.0863403379917145e-01 -7.1329468488693237e-01</leafValues></_>
        <_>
          <internalNodes>
            0 -1 99 -6.2247612513601780e-03</internalNodes>
          <leafValues>
            1.7694666981697083e-01 -8.6536401510238647e-01</leafValues></_>
        <_>
          <internalNodes>
            0 -1 149 1.5680229291319847e-02</internalNodes>
          <leafValues>
            -2.1978569030761719e-01 7.3532772064208984e-01</leafValues></_>
        <_>
          <internalNodes>
            0 -1 105 1.0950013063848019e-02</internalNodes>
          <leafValues>
            -5.9004575014114380e-01 2.6410374045372009e-01</leafValues></_>
        <_>
          <internalNodes>
            0 -1 112 6.7913644015789032e-02</internalNodes>
          <leafValues>
            1.3958233594894409e-01 -8.6188572645187378e-01</leafValues></_>
        <_>
          <internalNodes>
            0 -1 55 4.4397478923201561e-03</internalNodes>
          <leafValues>
            -7.6862579584121704e-01 1.3905195891857147e-01</leafValues></_>
        <_>
          <internalNodes>
            0 -1 63 -2.7923770248889923e-02</internalNodes>
          <leafValues>
            -8.6736834049224854e-01 1.3937270641326904e-01</leafValues></_></weakClassifiers></_>
    <!-- stage 12 -->
    <_>
      <maxWeakCount>10</maxWeakCount>
      <stageThreshold>-1.5636265277862549e+00</stageThreshold>
      <weakClassifiers>
        <_>
          <internalNodes>
            0 -1 26 4.2157370597124100e-02</internalNodes>
          <leafValues>
            -7.0895522832870483e-01 3.5714286565780640e-01</leafValues></_>
        <_>
          <internalNodes>
            0 -1 145 1.2418918311595917e-02</internalNodes>
          <leafValues>
            -4.4023120403289795e-01 4.1757428646087646e-01</leafValues></_>
        <_>
          <internalNodes>
            0 -1 43 1.1407246813178062e-02</internalNodes>
          <leafValues>
            -5.7375413179397583e-01 2.6042965054512024e-01</leafValues></_>
        <_>
          <internalNodes>
            0 -1 37 -6.8149842321872711e-02</internalNodes>
          <leafValues>
            2.9311171174049377e-01 -5.2201193571090698e-01</leafValues></_>
        <_>
          <internalNodes>
            0 -1 50 -1.2659598141908646e-02</internalNodes>
          <leafValues>
            4.1854536533355713e-01 -3.2111793756484985e-01</leafValues></_>
        <_>
          <internalNodes>
            0 -1 117 -3.3039727713912725e-03</internalNodes>
          <leafValues>
            4.8954546451568604e-01 -2.7242717146873474e-01</leafValues></_>
        <_>
          <internalNodes>
            0 -1 85 3.6368675529956818e-02</internalNodes>
          <leafValues>
            1.8314130604267120e-01 -8.7470877170562744e-01</leafValues></_>
        <_>
          <internalNodes>
            0 -1 156 -8.5865659639239311e-04</internalNodes>
          <leafValues>
            -7.7526181936264038e-01 1.3364273309707642e-01</leafValues></_>
        <_>
          <internalNodes>
            0 -1 67 2.7176033705472946e-02</internalNodes>
          <leafValues>
            1.3523070514202118e-01 -7.8170645236968994e-01</leafValues></_>
        <_>
          <internalNodes>
            0 -1 72 -6.1936960555613041e-03</internalNodes>
          <leafValues>
            -7.7330011129379272e-01 1.3279992341995239e-01</leafValues></_></weakClassifiers></_>
    <!-- stage 13 -->
    <_>
      <maxWeakCount>12</maxWeakCount>
      <stageThreshold>-1.6172202825546265e+00</stageThreshold>
      <weakClassifiers>
        <_>
          <internalNodes>
            0 -1 29 -6.7424371838569641e-02</internalNodes>
          <leafValues>
            2.9870128631591797e-01 -6.9040244817733765e-01</leafValues></_>
        <_>
          <internalNodes>
            0 -1 115 1.7784982919692993e-03</internalNodes>
          <leafValues>
            -4.0621683001518250e-01 5.0844967365264893e-01</leafValues></_>
        <_>
          <internalNodes>
            0 -1 76 4.7417934983968735e-03</internalNodes>
          <leafValues>
            -2.7689030766487122e-01 4.7675922513008118e-01</leafValues></_>
        <_>
          <internalNodes>
            0 -1 144 5.1989452913403511e-03</internalNodes>
          <leafValues>
            -6.7431944608688354e-01 2.0296800136566162e-01</leafValues></_>
        <_>
          <internalNodes>
            0 -1 61 -1.8975973129272461e-02</internalNodes>
          <leafValues>
            3.2662072777748108e-01 -3.9791521430015564e-01</leafValues></_>
        <_>
          <internalNodes>
            0 -1 84 4.5136017724871635e-03</internalNodes>
          <leafValues>
            -2.5260689854621887e-01 5.0189214944839478e-01</leafValues></_>
        <_>
          <internalNodes>
            0 -1 92 1.3487768359482288e-02</internalNodes>
          <leafValues>
            -1.3927158713340759e-01 8.0400454998016357e-01</leafValues></_>
        <_>
          <internalNodes>
            0 -1 104 7.4204597622156143e-03</internalNodes>
          <leafValues>
            -1.7233571410179138e-01 7.4114388227462769e-01</leafValues></_>
        <_>
          <internalNodes>
            0 -1 70 2.2017054259777069e-02</internalNodes>
          <leafValues>
            1.6356967389583588e-01 -8.5076332092285156e-01</leafValues></_>
        <_>
          <internalNodes>
            0 -1 80 9.6233151853084564e-03</internalNodes>
          <leafValues>
            1.9736012816429138e-01 -6.1618560552597046e-01</leafValues></_>
        <_>
          <internalNodes>
            0 -1 58 1.3364348560571671e-02</internalNodes>
          <leafValues>
            -7.1763831377029419e-01 1.6565938293933868e-01</leafValues></_>
        <_>
          <internalNodes>
            0 -1 68 -8.6390428245067596e-02</internalNodes>
          <leafValues>
            -8.3684760332107544e-01 1.4762327075004578e-01</leafValues></_></weakClassifiers></_>
    <!-- stage 14 -->
    <_>
      <maxWeakCount>9</maxWeakCount>
      <stageThreshold>-1.2470121383666992e+00</stageThreshold>
      <weakClassifiers>
        <_>
          <internalNodes>
            0 -1 25 -1.8501020967960358e-02</internalNodes>
          <leafValues>
            3.4482758492231369e-02 -7.5036710500717163e-01</leafValues></_>
        <_>
          <internalNodes>
            0 -1 110 3.3452459610998631e-03</internalNodes>
          <leafValues>
            -5.3632974624633789e-01 2.7313882112503052e-01</leafValues></_>
        <_>
          <internalNodes>
            0 -1 59 6.0603857040405273e-02</internalNodes>
          <leafValues>
            -4.5948940515518188e-01 2.6314866542816162e-01</leafValues></_>
        <_>
          <internalNodes>
            0 -1 1 3.3202227205038071e-02</internalNodes>
          <leafValues>
            -2.4539507925510406e-01 5.5467331409454346e-01</leafValues></_>
        <_>
          <internalNodes>
            0 -1 140 -6.2211733311414719e-03</internalNodes>
          <leafValues>
            2.8898420929908752e-01 -5.0629585981369019e-01</leafValues></_>
        <_>
          <internalNodes>
            0 -1 2 -2.3635053634643555e-01</internalNodes>
          <leafValues>
            -8.1653654575347900e-01 1.4653246104717255e-01</leafValues></_>
        <_>
          <internalNodes>
            0 -1 128 -1.0063145309686661e-03</internalNodes>
          <leafValues>
            1.9825530052185059e-01 -6.1189073324203491e-01</leafValues></_>
        <_>
          <internalNodes>
            0 -1 31 1.9757963716983795e-02</internalNodes>
          <leafValues>
            -7.1462684869766235e-01 1.4603331685066223e-01</leafValues></_>
        <_>
          <internalNodes>
            0 -1 64 2.1985612809658051e-02</internalNodes>
          <leafValues>
            1.5443366765975952e-01 -7.5787413120269775e-01</leafValues></_></weakClassifiers></_>
    <!-- stage 15 -->
    <_>
      <maxWeakCount>10</maxWeakCount>
      <stageThreshold>-1.4906609058380127e+00</stageThreshold>
      <weakClassifiers>
        <_>
          <internalNodes>
            0 -1 155 6.3379079103469849e-02</internalNodes>
          <leafValues>
            -6.8908631801605225e-01 2.0283019542694092e-01</leafValues></_>
        <_>
          <internalNodes>
            0 -1 90 -5.3347153589129448e-03</internalNodes>
          <leafValues>
            5.1204907894134521e-01 -3.4116607904434204e-01</leafValues></_>
        <_>
          <internalNodes>
            0 -1 107 -9.0300375595688820e-03</internalNodes>
          <leafValues>
            7.6266509294509888e-01 -1.8306615948677063e-01</leafValues></_>
        <_>
          <internalNodes>
            0 -1 40 4.9539543688297272e-02</internalNodes>
          <leafValues>
            -7.4855852127075195e-01 2.2913552820682526e-01</leafValues></_>
        <_>
          <internalNodes>
            0 -1 34 1.8918717280030251e-02</internalNodes>
          <leafValues>
            -3.6222413182258606e-01 3.9604598283767700e-01</leafValues></_>
        <_>
          <internalNodes>
            0 -1 113 -5.0252499058842659e-03</internalNodes>
          <leafValues>
            7.8727006912231445e-01 -1.7306599020957947e-01</leafValues></_>
        <_>
          <internalNodes>
            0 -1 93 1.8521458841860294e-03</internalNodes>
          <leafValues>
            1.9024159014225006e-01 -7.1337544918060303e-01</leafValues></_>
        <_>
          <internalNodes>
            0 -1 114 7.4640819802880287e-03</internalNodes>
          <leafValues>
            -9.2389672994613647e-01 1.0189255326986313e-01</leafValues></_>
        <_>
          <internalNodes>
            0 -1 139 -1.6119314357638359e-02</internalNodes>
          <leafValues>
            2.2349476814270020e-01 -5.0407040119171143e-01</leafValues></_>
        <_>
          <internalNodes>
            0 -1 125 -1.0323867201805115e-02</internalNodes>
          <leafValues>
            3.6522737145423889e-01 -3.5999432206153870e-01</leafValues></_></weakClassifiers></_>
    <!-- stage 16 -->
    <_>
      <maxWeakCount>10</maxWeakCount>
      <stageThreshold>-1.5111230611801147e+00</stageThreshold>
      <weakClassifiers>
        <_>
          <internalNodes>
            0 -1 24 7.1217872202396393e-02</internalNodes>
          <leafValues>
            -6.6285371780395508e-01 2.9793509840965271e-01</leafValues></_>
        <_>
          <internalNodes>
            0 -1 94 -8.7269727373495698e-04</internalNodes>
          <leafValues>
            2.9428872466087341e-01 -4.2602550983428955e-01</leafValues></_>
        <_>
          <internalNodes>
            0 -1 81 4.9464213661849499e-03</internalNodes>
          <leafValues>
            -5.7156336307525635e-01 2.1696305274963379e-01</leafValues></_>
        <_>
          <internalNodes>
            0 -1 78 1.1280231177806854e-02</internalNodes>
          <leafValues>
            -4.9958410859107971e-01 2.5074166059494019e-01</leafValues></_>
        <_>
          <internalNodes>
            0 -1 65 1.5367381274700165e-02</internalNodes>
          <leafValues>
            1.7517517507076263e-01 -7.6565635204315186e-01</leafValues></_>
        <_>
          <internalNodes>
            0 -1 73 -1.0562281124293804e-02</internalNodes>
          <leafValues>
            -5.2286362648010254e-01 2.2423391044139862e-01</leafValues></_>
        <_>
          <internalNodes>
            0 -1 54 1.9367735832929611e-02</internalNodes>
          <leafValues>
            -6.7178970575332642e-01 1.7014786601066589e-01</leafValues></_>
        <_>
          <internalNodes>
            0 -1 138 2.7722108643501997e-03</internalNodes>
          <leafValues>
            -1.7219521105289459e-01 7.2322911024093628e-01</leafValues></_>
        <_>
          <internalNodes>
            0 -1 0 3.0911075882613659e-03</internalNodes>
          <leafValues>
            2.3262028396129608e-01 -5.6559592485427856e-01</leafValues></_>
        <_>
          <internalNodes>
            0 -1 86 -8.4079392254352570e-03</internalNodes>
          <leafValues>
            -8.4971940517425537e-01 1.0942379385232925e-01</leafValues></_></weakClassifiers></_>
    <!-- stage 17 -->
    <_>
      <maxWeakCount>12</maxWeakCount>
      <stageThreshold>-1.4598007202148438e+00</stageThreshold>
      <weakClassifiers>
        <_>
          <internalNodes>
            0 -1 7 2.4758558720350266e-02</internalNodes>
          <leafValues>
            -6.6163140535354614e-01 2.7536231279373169e-01</leafValues></_>
        <_>
          <internalNodes>
            0 -1 146 4.9869492650032043e-03</internalNodes>
          <leafValues>
            -4.1805958747863770e-01 3.5958766937255859e-01</leafValues></_>
        <_>
          <internalNodes>
            0 -1 45 3.4604044631123543e-03</internalNodes>
          <leafValues>
            -5.8647876977920532e-01 2.1751524507999420e-01</leafValues></_>
        <_>
          <internalNodes>
            0 -1 27 3.6041982471942902e-02</internalNodes>
          <leafValues>
            -6.8523979187011719e-01 1.5533234179019928e-01</leafValues></_>
        <_>
          <internalNodes>
            0 -1 101 7.0944274775683880e-03</internalNodes>
          <leafValues>
            -1.8802450597286224e-01 6.1154228448867798e-01</leafValues></_>
        <_>
          <internalNodes>
            0 -1 111 -5.3450107574462891e-02</internalNodes>
          <leafValues>
            -7.8304213285446167e-01 1.9141161441802979e-01</leafValues></_>
        <_>
          <internalNodes>
            0 -1 154 5.3609383758157492e-04</internalNodes>
          <leafValues>
            1.5100845694541931e-01 -6.5954923629760742e-01</leafValues></_>
        <_>
          <internalNodes>
            0 -1 52 5.7972194626927376e-03</internalNodes>
          <leafValues>
            -3.5903617739677429e-01 3.3232048153877258e-01</leafValues></_>
        <_>
          <internalNodes>
            0 -1 88 -1.1344840750098228e-02</internalNodes>
          <leafValues>
            7.3870438337326050e-01 -1.5304452180862427e-01</leafValues></_>
        <_>
          <internalNodes>
            0 -1 21 1.0177874937653542e-03</internalNodes>
          <leafValues>
            2.6505661010742188e-01 -4.4102853536605835e-01</leafValues></_>
        <_>
          <internalNodes>
            0 -1 129 -4.9494528211653233e-03</internalNodes>
          <leafValues>
            1.9015228748321533e-01 -5.9173476696014404e-01</leafValues></_>
        <_>
          <internalNodes>
            0 -1 124 1.9512128084897995e-02</internalNodes>
          <leafValues>
            1.2397265434265137e-01 -7.3462450504302979e-01</leafValues></_></weakClassifiers></_>
    <!-- stage 18 -->
    <_>
      <maxWeakCount>12</maxWeakCount>
      <stageThreshold>-1.8142403364181519e+00</stageThreshold>
      <weakClassifiers>
        <_>
          <internalNodes>
            0 -1 153 9.3812093138694763e-02</internalNodes>
          <leafValues>
            -6.4791285991668701e-01 2.0461094379425049e-01</leafValues></_>
        <_>
          <internalNodes>
            0 -1 77 3.5775098949670792e-03</internalNodes>
          <leafValues>
            -3.7058290839195251e-01 3.4822082519531250e-01</leafValues></_>
        <_>
          <internalNodes>
            0 -1 126 3.0303411185741425e-03</internalNodes>
          <leafValues>
            -3.0374518036842346e-01 4.2312714457511902e-01</leafValues></_>
        <_>
          <internalNodes>
            0 -1 130 1.9880151376128197e-03</internalNodes>
          <leafValues>
            -6.3484662771224976e-01 1.8510580062866211e-01</leafValues></_>
        <_>
          <internalNodes>
            0 -1 136 5.1063932478427887e-03</internalNodes>
          <leafValues>
            -1.9527953863143921e-01 6.0593795776367188e-01</leafValues></_>
        <_>
          <internalNodes>
            0 -1 127 -3.3961933106184006e-02</internalNodes>
          <leafValues>
            -7.8661346435546875e-01 1.8310578167438507e-01</leafValues></_>
        <_>
          <internalNodes>
            0 -1 44 -1.4647479355335236e-01</internalNodes>
          <leafValues>
            2.8667646646499634e-01 -4.3612787127494812e-01</leafValues></_>
        <_>
          <internalNodes>
            0 -1 104 -7.7681131660938263e-03</internalNodes>
          <leafValues>
            6.9990217685699463e-01 -1.8441414833068848e-01</leafValues></_>
        <_>
          <internalNodes>
            0 -1 103 4.1125495918095112e-03</internalNodes>
          <leafValues>
            -1.7701594531536102e-01 6.3366925716400146e-01</leafValues></_>
        <_>
          <internalNodes>
            0 -1 121 3.8636592216789722e-03</internalNodes>
          <leafValues>
            -7.3339873552322388e-01 1.6611520946025848e-01</leafValues></_>
        <_>
          <internalNodes>
            0 -1 71 3.0127894133329391e-02</internalNodes>
          <leafValues>
            1.6876079142093658e-01 -6.8585348129272461e-01</leafValues></_>
        <_>
          <internalNodes>
            0 -1 10 5.8094482868909836e-02</internalNodes>
          <leafValues>
            -2.0224937796592712e-01 5.6421697139739990e-01</leafValues></_></weakClassifiers></_>
    <!-- stage 19 -->
    <_>
      <maxWeakCount>11</maxWeakCount>
      <stageThreshold>-1.6167633533477783e+00</stageThreshold>
      <weakClassifiers>
        <_>
          <internalNodes>
            0 -1 3 7.6805269718170166e-01</internalNodes>
          <leafValues>
            -6.5930598974227905e-01 1.0843373835086823e-01</leafValues></_>
        <_>
          <internalNodes>
            0 -1 83 3.1121727079153061e-03</internalNodes>
          <leafValues>
            -2.5148680806159973e-01 6.6303300857543945e-01</leafValues></_>
        <_>
          <internalNodes>
            0 -1 97 7.0765148848295212e-03</internalNodes>
          <leafValues>
            1.5426567196846008e-01 -8.2684272527694702e-01</leafValues></_>
        <_>
          <internalNodes>
            0 -1 116 3.2402370125055313e-03</internalNodes>
          <leafValues>
            -2.8506663441658020e-01 4.0830591320991516e-01</leafValues></_>
        <_>
          <internalNodes>
            0 -1 82 2.9846427496522665e-03</internalNodes>
          <leafValues>
            -1.8517997860908508e-01 6.9247949123382568e-01</leafValues></_>
        <_>
          <internalNodes>
            0 -1 57 3.6200024187564850e-02</internalNodes>
          <leafValues>
            2.0917151868343353e-01 -8.2766348123550415e-01</leafValues></_>
        <_>
          <internalNodes>
            0 -1 62 3.8201585412025452e-03</internalNodes>
          <leafValues>
            -8.1374722719192505e-01 9.6162453293800354e-02</leafValues></_>
        <_>
          <internalNodes>
            0 -1 69 -4.2905189096927643e-02</internalNodes>
          <leafValues>
            -6.2411880493164062e-01 1.4940895140171051e-01</leafValues></_>
        <_>
          <internalNodes>
            0 -1 53 6.1442315578460693e-02</internalNodes>
          <leafValues>
            1.0685702413320541e-01 -8.0089014768600464e-01</leafValues></_>
        <_>
          <internalNodes>
            0 -1 13 -5.6505156680941582e-04</internalNodes>
          <leafValues>
            -5.1873475313186646e-01 1.6004413366317749e-01</leafValues></_>
        <_>
          <internalNodes>
            0 -1 12 -9.6783116459846497e-02</internalNodes>
          <leafValues>
            2.5644022226333618e-01 -4.0060451626777649e-01</leafValues></_></weakClassifiers></_></stages>
  <features>
    <_>
      <rects>
        <_>
          0 0 1 6 -1.</_>
        <_>
          0 3 1 3 2.</_></rects>
      <tilted>0</tilted></_>
    <_>
      <rects>
        <_>
          0 0 4 14 -1.</_>
        <_>
          0 0 2 7 2.</_>
        <_>
          2 7 2 7 2.</_></rects>
      <tilted>0</tilted></_>
    <_>
      <rects>
        <_>
          0 0 20 20 -1.</_>
        <_>
          10 0 10 20 2.</_></rects>
      <tilted>0</tilted></_>
    <_>
      <rects>
        <_>
          0 1 20 18 -1.</_>
        <_>
          0 7 20 6 3.</_></rects>
      <tilted>0</tilted></_>
    <_>
      <rects>
        <_>
          0 2 10 3 -1.</_>
        <_>
          5 2 5 3 2.</_></rects>
      <tilted>0</tilted></_>
    <_>
      <rects>
        <_>
          0 3 11 8 -1.</_>
        <_>
          0 7 11 4 2.</_></rects>
      <tilted>0</tilted></_>
    <_>
      <rects>
        <_>
          0 4 19 15 -1.</_>
        <_>
          0 9 19 5 3.</_></rects>
      <tilted>0</tilted></_>
    <_>
      <rects>
        <_>
          0 6 3 10 -1.</_>
        <_>
          1 6 1 10 3.</_></rects>
      <tilted>0</tilted></_>
    <_>
      <rects>
        <_>
          0 7 4 8 -1.</_>
        <_>
          2 7 2 8 2.</_></rects>
      <tilted>0</tilted></_>
    <_>
      <rects>
        <_>
          0 8 2 4 -1.</_>
        <_>
          1 8 1 4 2.</_></rects>
      <tilted>0</tilted></_>
    <_>
      <rects>
        <_>
          0 8 6 6 -1.</_>
        <_>
          2 8 2 6 3.</_></rects>
      <tilted>0</tilted></_>
    <_>
      <rects>
        <_>
          0 10 20 9 -1.</_>
        <_>
          0 13 20 3 3.</_></rects>
      <tilted>0</tilted></_>
    <_>
      <rects>
        <_>
          0 12 19 6 -1.</_>
        <_>
          0 15 19 3 2.</_></rects>
      <tilted>0</tilted></_>
    <_>
      <rects>
        <_>
          0 15 1 2 -1.</_>
        <_>
          0 16 1 1 2.</_></rects>
      <tilted>0</tilted></_>
    <_>
      <rects>
        <_>
          0 16 10 2 -1.</_>
        <_>
          5 16 5 2 2.</_></rects>
      <tilted>0</tilted></_>
    <_>
      <rects>
        <_>
          0 16 14 3 -1.</_>
        <_>
          7 16 7 3 2.</_></rects>
      <tilted>0</tilted></_>
    <_>
      <rects>
        <_>
          1 1 1 18 -1.</_>
        <_>
          1 7 1 6 3.</_></rects>
      <tilted>0</tilted></_>
    <_>
      <rects>
        <_>
          1 1 2 18 -1.</_>
        <_>
          1 7 2 6 3.</_></rects>
      <tilted>0</tilted></_>
    <_>
      <rects>
        <_>
          1 1 8 5 -1.</_>
        <_>
          5 1 4 5 2.</_></rects>
      <tilted>0</tilted></_>
    <_>
      <rects>
        <_>
          1 1 15 4 -1.</_>
        <_>
          6 1 5 4 3.</_></rects>
      <tilted>0</tilted></_>
    <_>
      <rects>
        <_>
          1 1 18 5 -1.</_>
        <_>
          7 1 6 5 3.</_></rects>
      <tilted>0</tilted></_>
    <_>
      <rects>
        <_>
          1 2 1 4 -1.</_>
        <_>
          1 4 1 2 2.</_></rects>
      <tilted>0</tilted></_>
    <_>
      <rects>
        <_>
          1 2 6 10 -1.</_>
        <_>
          1 2 3 5 2.</_>
        <_>
          4 7 3 5 2.</_></rects>
      <tilted>0</tilted></_>
    <_>
      <rects>
        <_>
          1 2 19 18 -1.</_>
        <_>
          1 8 19 6 3.</_></rects>
      <tilted>0</tilted></_>
    <_>
      <rects>
        <_>
          1 3 1 15 -1.</_>
        <_>
          1 8 1 5 3.</_></rects>
      <tilted>0</tilted></_>
    <_>
      <rects>
        <_>
          1 3 4 8 -1.</_>
        <_>
          1 3 2 4 2.</_>
        <_>
          3 7 2 4 2.</_></rects>
      <tilted>0</tilted></_>
    <_>
      <rects>
        <_>
          1 4 1 12 -1.</_>
        <_>
          1 8 1 4 3.</_></rects>
      <tilted>0</tilted></_>
    <_>
      <rects>
        <_>
          1 4 16 6 -1.</_>
        <_>
          1 7 16 3 2.</_></rects>
      <tilted>0</tilted></_>
    <_>
      <rects>
        <_>
          1 5 18 15 -1.</_>
        <_>
          1 10 18 5 3.</_></rects>
      <tilted>0</tilted></_>
    <_>
      <rects>
        <_>
          1 7 9 6 -1.</_>
        <_>
          4 7 3 6 3.</_></rects>
      <tilted>0</tilted></_>
    <_>
      <rects>
        <_>
          1 8 6 12 -1.</_>
        <_>
          1 8 3 6 2.</_>
        <_>
          4 14 3 6 2.</_></rects>
      <tilted>0</tilted></_>
    <_>
      <rects>
        <_>
          1 8 19 9 -1.</_>
        <_>
          1 11 19 3 3.</_></rects>
      <tilted>0</tilted></_>
    <_>
      <rects>
        <_>
          1 9 4 8 -1.</_>
        <_>
          1 9 2 4 2.</_>
        <_>
          3 13 2 4 2.</_></rects>
      <tilted>0</tilted></_>
    <_>
      <rects>
        <_>
          1 10 6 8 -1.</_>
        <_>
          1 10 3 4 2.</_>
        <_>
          4 14 3 4 2.</_></rects>
      <tilted>0</tilted></_>
    <_>
      <rects>
        <_>
          1 11 6 6 -1.</_>
        <_>
          1 11 3 3 2.</_>
        <_>
          4 14 3 3 2.</_></rects>
      <tilted>0</tilted></_>
    <_>
      <rects>
        <_>
          1 12 18 8 -1.</_>
        <_>
          1 16 18 4 2.</_></rects>
      <tilted>0</tilted></_>
    <_>
      <rects>
        <_>
          1 14 5 4 -1.</_>
        <_>
          1 16 5 2 2.</_></rects>
      <tilted>0</tilted></_>
    <_>
      <rects>
        <_>
          1 14 17 6 -1.</_>
        <_>
          1 17 17 3 2.</_></rects>
      <tilted>0</tilted></_>
    <_>
      <rects>
        <_>
          1 15 16 4 -1.</_>
        <_>
          1 17 16 2 2.</_></rects>
      <tilted>0</tilted></_>
    <_>
      <rects>
        <_>
          1 17 1 2 -1.</_>
        <_>
          1 18 1 1 2.</_></rects>
      <tilted>0</tilted></_>
    <_>
      <rects>
        <_>
          2 1 14 8 -1.</_>
        <_>
          2 5 14 4 2.</_></rects>
      <tilted>0</tilted></_>
    <_>
      <rects>
        <_>
          2 1 16 8 -1.</_>
        <_>
          2 5 16 4 2.</_></rects>
      <tilted>0</tilted></_>
    <_>
      <rects>
        <_>
          2 1 18 18 -1.</_>
        <_>
          2 7 18 6 3.</_></rects>
      <tilted>0</tilted></_>
    <_>
      <rects>
        <_>
          2 2 8 2 -1.</_>
        <_>
          6 2 4 2 2.</_></rects>
      <tilted>0</tilted></_>
    <_>
      <rects>
        <_>
          2 11 17 8 -1.</_>
        <_>
          2 15 17 4 2.</_></rects>
      <tilted>0</tilted></_>
    <_>
      <rects>
        <_>
          3 1 4 4 -1.</_>
        <_>
          3 3 4 2 2.</_></rects>
      <tilted>0</tilted></_>
    <_>
      <rects>
        <_>
          3 1 8 3 -1.</_>
        <_>
          7 1 4 3 2.</_></rects>
      <tilted>0</tilted></_>
    <_>
      <rects>
        <_>
          3 1 8 6 -1.</_>
        <_>
          3 4 8 3 2.</_></rects>
      <tilted>0</tilted></_>
    <_>
      <rects>
        <_>
          3 1 16 10 -1.</_>
        <_>
          3 6 16 5 2.</_></rects>
      <tilted>0</tilted></_>
    <_>
      <rects>
        <_>
          3 2 4 3 -1.</_>
        <_>
          5 2 2 3 2.</_></rects>
      <tilted>0</tilted></_>
    <_>
      <rects>
        <_>
          3 8 6 6 -1.</_>
        <_>
          5 8 2 6 3.</_></rects>
      <tilted>0</tilted></_>
    <_>
      <rects>
        <_>
          3 11 17 6 -1.</_>
        <_>
          3 14 17 3 2.</_></rects>
      <tilted>0</tilted></_>
    <_>
      <rects>
        <_>
          3 12 4 6 -1.</_>
        <_>
          3 12 2 3 2.</_>
        <_>
          5 15 2 3 2.</_></rects>
      <tilted>0</tilted></_>
    <_>
      <rects>
        <_>
          4 0 9 9 -1.</_>
        <_>
          7 0 3 9 3.</_></rects>
      <tilted>0</tilted></_>
    <_>
      <rects>
        <_>
          4 0 12 6 -1.</_>
        <_>
          8 0 4 6 3.</_></rects>
      <tilted>0</tilted></_>
    <_>
      <rects>
        <_>
          4 1 3 8 -1.</_>
        <_>
          4 5 3 4 2.</_></rects>
      <tilted>0</tilted></_>
    <_>
      <rects>
        <_>
          4 1 8 8 -1.</_>
        <_>
          8 1 4 8 2.</_></rects>
      <tilted>0</tilted></_>
    <_>
      <rects>
        <_>
          4 4 6 9 -1.</_>
        <_>
          4 7 6 3 3.</_></rects>
      <tilted>0</tilted></_>
    <_>
      <rects>
        <_>
          4 4 9 8 -1.</_>
        <_>
          4 8 9 4 2.</_></rects>
      <tilted>0</tilted></_>
    <_>
      <rects>
        <_>
          4 5 16 9 -1.</_>
        <_>
          4 8 16 3 3.</_></rects>
      <tilted>0</tilted></_>
    <_>
      <rects>
        <_>
          4 15 16 4 -1.</_>
        <_>
          12 15 8 4 2.</_></rects>
      <tilted>0</tilted></_>
    <_>
      <rects>
        <_>
          4 16 9 4 -1.</_>
        <_>
          4 18 9 2 2.</_></rects>
      <tilted>0</tilted></_>
    <_>
      <rects>
        <_>
          5 0 9 9 -1.</_>
        <_>
          8 0 3 9 3.</_></rects>
      <tilted>0</tilted></_>
    <_>
      <rects>
        <_>
          5 0 12 10 -1.</_>
        <_>
          5 0 6 5 2.</_>
        <_>
          11 5 6 5 2.</_></rects>
      <tilted>0</tilted></_>
    <_>
      <rects>
        <_>
          5 3 4 6 -1.</_>
        <_>
          5 6 4 3 2.</_></rects>
      <tilted>0</tilted></_>
    <_>
      <rects>
        <_>
          5 4 10 4 -1.</_>
        <_>
          10 4 5 4 2.</_></rects>
      <tilted>0</tilted></_>
    <_>
      <rects>
        <_>
          5 4 10 8 -1.</_>
        <_>
          10 4 5 8 2.</_></rects>
      <tilted>0</tilted></_>
    <_>
      <rects>
        <_>
          5 5 10 8 -1.</_>
        <_>
          10 5 5 8 2.</_></rects>
      <tilted>0</tilted></_>
    <_>
      <rects>
        <_>
          5 9 10 8 -1.</_>
        <_>
          5 13 10 4 2.</_></rects>
      <tilted>0</tilted></_>
    <_>
      <rects>
        <_>
          5 12 8 6 -1.</_>
        <_>
          5 15 8 3 2.</_></rects>
      <tilted>0</tilted></_>
    <_>
      <rects>
        <_>
          6 1 6 7 -1.</_>
        <_>
          8 1 2 7 3.</_></rects>
      <tilted>0</tilted></_>
    <_>
      <rects>
        <_>
          6 2 10 9 -1.</_>
        <_>
          6 5 10 3 3.</_></rects>
      <tilted>0</tilted></_>
    <_>
      <rects>
        <_>
          6 4 6 5 -1.</_>
        <_>
          9 4 3 5 2.</_></rects>
      <tilted>0</tilted></_>
    <_>
      <rects>
        <_>
          6 4 10 3 -1.</_>
        <_>
          11 4 5 3 2.</_></rects>
      <tilted>0</tilted></_>
    <_>
      <rects>
        <_>
          6 4 10 5 -1.</_>
        <_>
          11 4 5 5 2.</_></rects>
      <tilted>0</tilted></_>
    <_>
      <rects>
        <_>
          6 6 8 12 -1.</_>
        <_>
          6 6 4 6 2.</_>
        <_>
          10 12 4 6 2.</_></rects>
      <tilted>0</tilted></_>
    <_>
      <rects>
        <_>
          6 7 3 6 -1.</_>
        <_>
          7 7 1 6 3.</_></rects>
      <tilted>0</tilted></_>
    <_>
      <rects>
        <_>
          6 8 3 4 -1.</_>
        <_>
          7 8 1 4 3.</_></rects>
      <tilted>0</tilted></_>
    <_>
      <rects>
        <_>
          6 8 9 5 -1.</_>
        <_>
          9 8 3 5 3.</_></rects>
      <tilted>0</tilted></_>
    <_>
      <rects>
        <_>
          6 11 9 8 -1.</_>
        <_>
          9 11 3 8 3.</_></rects>
      <tilted>0</tilted></_>
    <_>
      <rects>
        <_>
          7 3 2 14 -1.</_>
        <_>
          7 10 2 7 2.</_></rects>
      <tilted>0</tilted></_>
    <_>
      <rects>
        <_>
          7 3 12 2 -1.</_>
        <_>
          11 3 4 2 3.</_></rects>
      <tilted>0</tilted></_>
    <_>
      <rects>
        <_>
          7 5 2 2 -1.</_>
        <_>
          7 5 1 1 2.</_>
        <_>
          8 6 1 1 2.</_></rects>
      <tilted>0</tilted></_>
    <_>
      <rects>
        <_>
          7 6 2 2 -1.</_>
        <_>
          7 6 1 1 2.</_>
        <_>
          8 7 1 1 2.</_></rects>
      <tilted>0</tilted></_>
    <_>
      <rects>
        <_>
          7 8 3 7 -1.</_>
        <_>
          8 8 1 7 3.</_></rects>
      <tilted>0</tilted></_>
    <_>
      <rects>
        <_>
          7 13 9 6 -1.</_>
        <_>
          10 13 3 6 3.</_></rects>
      <tilted>0</tilted></_>
    <_>
      <rects>
        <_>
          7 14 6 6 -1.</_>
        <_>
          9 14 2 6 3.</_></rects>
      <tilted>0</tilted></_>
    <_>
      <rects>
        <_>
          8 0 9 10 -1.</_>
        <_>
          8 5 9 5 2.</_></rects>
      <tilted>0</tilted></_>
    <_>
      <rects>
        <_>
          8 2 4 3 -1.</_>
        <_>
          8 3 4 1 3.</_></rects>
      <tilted>0</tilted></_>
    <_>
      <rects>
        <_>
          8 3 3 10 -1.</_>
        <_>
          8 8 3 5 2.</_></rects>
      <tilted>0</tilted></_>
    <_>
      <rects>
        <_>
          8 3 4 3 -1.</_>
        <_>
          8 4 4 1 3.</_></rects>
      <tilted>0</tilted></_>
    <_>
      <rects>
        <_>
          8 4 3 3 -1.</_>
        <_>
          8 5 3 1 3.</_></rects>
      <tilted>0</tilted></_>
    <_>
      <rects>
        <_>
          8 4 4 3 -1.</_>
        <_>
          8 5 4 1 3.</_></rects>
      <tilted>0</tilted></_>
    <_>
      <rects>
        <_>
          8 4 4 14 -1.</_>
        <_>
          8 11 4 7 2.</_></rects>
      <tilted>0</tilted></_>
    <_>
      <rects>
        <_>
          8 8 2 3 -1.</_>
        <_>
          9 8 1 3 2.</_></rects>
      <tilted>0</tilted></_>
    <_>
      <rects>
        <_>
          8 8 2 8 -1.</_>
        <_>
          8 8 1 4 2.</_>
        <_>
          9 12 1 4 2.</_></rects>
      <tilted>0</tilted></_>
    <_>
      <rects>
        <_>
          8 8 5 12 -1.</_>
        <_>
          8 14 5 6 2.</_></rects>
      <tilted>0</tilted></_>
    <_>
      <rects>
        <_>
          8 8 6 4 -1.</_>
        <_>
          8 10 6 2 2.</_></rects>
      <tilted>0</tilted></_>
    <_>
      <rects>
        <_>
          8 13 4 5 -1.</_>
        <_>
          10 13 2 5 2.</_></rects>
      <tilted>0</tilted></_>
    <_>
      <rects>
        <_>
          8 15 12 5 -1.</_>
        <_>
          14 15 6 5 2.</_></rects>
      <tilted>0</tilted></_>
    <_>
      <rects>
        <_>
          9 0 1 3 -1.</_>
        <_>
          9 1 1 1 3.</_></rects>
      <tilted>0</tilted></_>
    <_>
      <rects>
        <_>
          9 0 2 3 -1.</_>
        <_>
          9 1 2 1 3.</_></rects>
      <tilted>0</tilted></_>
    <_>
      <rects>
        <_>
          9 2 4 3 -1.</_>
        <_>
          9 3 4 1 3.</_></rects>
      <tilted>0</tilted></_>
    <_>
      <rects>
        <_>
          9 3 1 3 -1.</_>
        <_>
          9 4 1 1 3.</_></rects>
      <tilted>0</tilted></_>
    <_>
      <rects>
        <_>
          9 3 2 3 -1.</_>
        <_>
          9 4 2 1 3.</_></rects>
      <tilted>0</tilted></_>
    <_>
      <rects>
        <_>
          9 3 3 12 -1.</_>
        <_>
          9 7 3 4 3.</_></rects>
      <tilted>0</tilted></_>
    <_>
      <rects>
        <_>
          9 3 9 12 -1.</_>
        <_>
          9 7 9 4 3.</_></rects>
      <tilted>0</tilted></_>
    <_>
      <rects>
        <_>
          9 4 2 3 -1.</_>
        <_>
          9 5 2 1 3.</_></rects>
      <tilted>0</tilted></_>
    <_>
      <rects>
        <_>
          9 5 3 3 -1.</_>
        <_>
          9 6 3 1 3.</_></rects>
      <tilted>0</tilted></_>
    <_>
      <rects>
        <_>
          9 5 3 12 -1.</_>
        <_>
          9 11 3 6 2.</_></rects>
      <tilted>0</tilted></_>
    <_>
      <rects>
        <_>
          9 9 2 6 -1.</_>
        <_>
          9 11 2 2 3.</_></rects>
      <tilted>0</tilted></_>
    <_>
      <rects>
        <_>
          10 0 6 9 -1.</_>
        <_>
          13 0 3 9 2.</_></rects>
      <tilted>0</tilted></_>
    <_>
      <rects>
        <_>
          10 2 6 12 -1.</_>
        <_>
          10 6 6 4 3.</_></rects>
      <tilted>0</tilted></_>
    <_>
      <rects>
        <_>
          10 5 1 3 -1.</_>
        <_>
          10 6 1 1 3.</_></rects>
      <tilted>0</tilted></_>
    <_>
      <rects>
        <_>
          10 5 6 12 -1.</_>
        <_>
          10 9 6 4 3.</_></rects>
      <tilted>0</tilted></_>
    <_>
      <rects>
        <_>
          10 6 2 4 -1.</_>
        <_>
          10 6 1 2 2.</_>
        <_>
          11 8 1 2 2.</_></rects>
      <tilted>0</tilted></_>
    <_>
      <rects>
        <_>
          10 9 1 6 -1.</_>
        <_>
          10 11 1 2 3.</_></rects>
      <tilted>0</tilted></_>
    <_>
      <rects>
        <_>
          10 15 6 2 -1.</_>
        <_>
          10 15 3 1 2.</_>
        <_>
          13 16 3 1 2.</_></rects>
      <tilted>0</tilted></_>
    <_>
      <rects>
        <_>
          11 0 4 10 -1.</_>
        <_>
          13 0 2 10 2.</_></rects>
      <tilted>0</tilted></_>
    <_>
      <rects>
        <_>
          11 2 6 2 -1.</_>
        <_>
          14 2 3 2 2.</_></rects>
      <tilted>0</tilted></_>
    <_>
      <rects>
        <_>
          11 2 6 6 -1.</_>
        <_>
          11 2 3 3 2.</_>
        <_>
          14 5 3 3 2.</_></rects>
      <tilted>0</tilted></_>
    <_>
      <rects>
        <_>
          11 3 7 4 -1.</_>
        <_>
          11 5 7 2 2.</_></rects>
      <tilted>0</tilted></_>
    <_>
      <rects>
        <_>
          11 4 3 12 -1.</_>
        <_>
          11 10 3 6 2.</_></rects>
      <tilted>0</tilted></_>
    <_>
      <rects>
        <_>
          11 4 4 12 -1.</_>
        <_>
          11 10 4 6 2.</_></rects>
      <tilted>0</tilted></_>
    <_>
      <rects>
        <_>
          11 6 6 6 -1.</_>
        <_>
          11 8 6 2 3.</_></rects>
      <tilted>0</tilted></_>
    <_>
      <rects>
        <_>
          11 7 6 8 -1.</_>
        <_>
          13 7 2 8 3.</_></rects>
      <tilted>0</tilted></_>
    <_>
      <rects>
        <_>
          11 8 3 4 -1.</_>
        <_>
          12 8 1 4 3.</_></rects>
      <tilted>0</tilted></_>
    <_>
      <rects>
        <_>
          11 10 3 8 -1.</_>
        <_>
          11 14 3 4 2.</_></rects>
      <tilted>0</tilted></_>
    <_>
      <rects>
        <_>
          11 12 4 7 -1.</_>
        <_>
          13 12 2 7 2.</_></rects>
      <tilted>0</tilted></_>
    <_>
      <rects>
        <_>
          12 0 4 6 -1.</_>
        <_>
          14 0 2 6 2.</_></rects>
      <tilted>0</tilted></_>
    <_>
      <rects>
        <_>
          12 1 5 4 -1.</_>
        <_>
          12 3 5 2 2.</_></rects>
      <tilted>0</tilted></_>
    <_>
      <rects>
        <_>
          12 1 6 4 -1.</_>
        <_>
          12 3 6 2 2.</_></rects>
      <tilted>0</tilted></_>
    <_>
      <rects>
        <_>
          12 2 6 4 -1.</_>
        <_>
          15 2 3 4 2.</_></rects>
      <tilted>0</tilted></_>
    <_>
      <rects>
        <_>
          12 3 8 3 -1.</_>
        <_>
          16 3 4 3 2.</_></rects>
      <tilted>0</tilted></_>
    <_>
      <rects>
        <_>
          12 3 6 4 -1.</_>
        <_>
          12 5 6 2 2.</_></rects>
      <tilted>0</tilted></_>
    <_>
      <rects>
        <_>
          12 7 8 12 -1.</_>
        <_>
          12 7 4 6 2.</_>
        <_>
          16 13 4 6 2.</_></rects>
      <tilted>0</tilted></_>
    <_>
      <rects>
        <_>
          12 9 3 3 -1.</_>
        <_>
          13 9 1 3 3.</_></rects>
      <tilted>0</tilted></_>
    <_>
      <rects>
        <_>
          12 11 3 2 -1.</_>
        <_>
          13 11 1 2 3.</_></rects>
      <tilted>0</tilted></_>
    <_>
      <rects>
        <_>
          12 14 2 2 -1.</_>
        <_>
          12 14 1 1 2.</_>
        <_>
          13 15 1 1 2.</_></rects>
      <tilted>0</tilted></_>
    <_>
      <rects>
        <_>
          12 15 8 3 -1.</_>
        <_>
          16 15 4 3 2.</_></rects>
      <tilted>0</tilted></_>
    <_>
      <rects>
        <_>
          13 0 4 7 -1.</_>
        <_>
          15 0 2 7 2.</_></rects>
      <tilted>0</tilted></_>
    <_>
      <rects>
        <_>
          13 3 6 2 -1.</_>
        <_>
          16 3 3 2 2.</_></rects>
      <tilted>0</tilted></_>
    <_>
      <rects>
        <_>
          14 2 6 10 -1.</_>
        <_>
          14 2 3 5 2.</_>
        <_>
          17 7 3 5 2.</_></rects>
      <tilted>0</tilted></_>
    <_>
      <rects>
        <_>
          14 3 6 8 -1.</_>
        <_>
          14 3 3 4 2.</_>
        <_>
          17 7 3 4 2.</_></rects>
      <tilted>0</tilted></_>
    <_>
      <rects>
        <_>
          14 4 6 4 -1.</_>
        <_>
          14 6 6 2 2.</_></rects>
      <tilted>0</tilted></_>
    <_>
      <rects>
        <_>
          14 8 6 3 -1.</_>
        <_>
          17 8 3 3 2.</_></rects>
      <tilted>0</tilted></_>
    <_>
      <rects>
        <_>
          14 10 6 1 -1.</_>
        <_>
          17 10 3 1 2.</_></rects>
      <tilted>0</tilted></_>
    <_>
      <rects>
        <_>
          14 14 6 2 -1.</_>
        <_>
          17 14 3 2 2.</_></rects>
      <tilted>0</tilted></_>
    <_>
      <rects>
        <_>
          16 6 4 10 -1.</_>
        <_>
          18 6 2 10 2.</_></rects>
      <tilted>0</tilted></_>
    <_>
      <rects>
        <_>
          16 8 3 4 -1.</_>
        <_>
          17 8 1 4 3.</_></rects>
      <tilted>0</tilted></_>
    <_>
      <rects>
        <_>
          17 1 3 18 -1.</_>
        <_>
          17 7 3 6 3.</_></rects>
      <tilted>0</tilted></_>
    <_>
      <rects>
        <_>
          17 6 3 7 -1.</_>
        <_>
          18 6 1 7 3.</_></rects>
      <tilted>0</tilted></_>
    <_>
      <rects>
        <_>
          18 0 1 4 -1.</_>
        <_>
          18 2 1 2 2.</_></rects>
      <tilted>0</tilted></_>
    <_>
      <rects>
        <_>
          18 1 1 18 -1.</_>
        <_>
          18 7 1 6 3.</_></rects>
      <tilted>0</tilted></_>
    <_>
      <rects>
        <_>
          18 2 1 2 -1.</_>
        <_>
          18 3 1 1 2.</_></rects>
      <tilted>0</tilted></_>
    <_>
      <rects>
        <_>
          18 3 1 15 -1.</_>
        <_>
          18 8 1 5 3.</_></rects>
      <tilted>0</tilted></_>
    <_>
      <rects>
        <_>
          19 17 1 2 -1.</_>
        <_>
          19 18 1 1 2.</_></rects>
      <tilted>0</tilted></_></features></cascade>
</opencv_storage>
